digraph Tree {
node [shape=box, style="filled, rounded", color="black", fontname="helvetica"] ;
edge [fontname="helvetica"] ;
0 [label=<alcohol &le; 10.65<br/>entropy = 0.971<br/>samples = 2938<br/>value = [110, 2192, 636]<br/>class = Standard quality>, fillcolor="#79edaa"] ;
1 [label=<volatile acidity &le; 0.215<br/>entropy = 0.689<br/>samples = 1695<br/>value = [82, 1471, 142]<br/>class = Standard quality>, fillcolor="#56e993"] ;
0 -> 1 [labeldistance=2.5, labelangle=45, headlabel="True"] ;
2 [label=<alcohol &le; 9.05<br/>entropy = 0.903<br/>samples = 454<br/>value = [12, 348, 94]<br/>class = Standard quality>, fillcolor="#73eda6"] ;
1 -> 2 ;
3 [label=<chlorides &le; 0.048<br/>entropy = 1.1<br/>samples = 64<br/>value = [1, 31, 32]<br/>class = High quality>, fillcolor="#fbf9fe"] ;
2 -> 3 ;
4 [label=<sulphates &le; 0.53<br/>entropy = 0.426<br/>samples = 23<br/>value = [0, 21, 2]<br/>class = Standard quality>, fillcolor="#4ce78d"] ;
3 -> 4 ;
5 [label=<entropy = 0.0<br/>samples = 19<br/>value = [0, 19, 0]<br/>class = Standard quality>, fillcolor="#39e581"] ;
4 -> 5 ;
6 [label=<free sulfur dioxide &le; 42.5<br/>entropy = 1.0<br/>samples = 4<br/>value = [0, 2, 2]<br/>class = Standard quality>, fillcolor="#ffffff"] ;
4 -> 6 ;
7 [label=<entropy = 0.0<br/>samples = 2<br/>value = [0, 0, 2]<br/>class = High quality>, fillcolor="#8139e5"] ;
6 -> 7 ;
8 [label=<entropy = 0.0<br/>samples = 2<br/>value = [0, 2, 0]<br/>class = Standard quality>, fillcolor="#39e581"] ;
6 -> 8 ;
9 [label=<citric acid &le; 0.305<br/>entropy = 0.957<br/>samples = 41<br/>value = [1, 10, 30]<br/>class = High quality>, fillcolor="#ae7fee"] ;
3 -> 9 ;
10 [label=<fixed acidity &le; 6.5<br/>entropy = 0.222<br/>samples = 28<br/>value = [0, 1, 27]<br/>class = High quality>, fillcolor="#8640e6"] ;
9 -> 10 ;
11 [label=<entropy = 0.0<br/>samples = 1<br/>value = [0, 1, 0]<br/>class = Standard quality>, fillcolor="#39e581"] ;
10 -> 11 ;
12 [label=<entropy = 0.0<br/>samples = 27<br/>value = [0, 0, 27]<br/>class = High quality>, fillcolor="#8139e5"] ;
10 -> 12 ;
13 [label=<alcohol &le; 8.95<br/>entropy = 1.14<br/>samples = 13<br/>value = [1, 9, 3]<br/>class = Standard quality>, fillcolor="#88efb3"] ;
9 -> 13 ;
14 [label=<free sulfur dioxide &le; 23.5<br/>entropy = 0.684<br/>samples = 11<br/>value = [0, 9, 2]<br/>class = Standard quality>, fillcolor="#65eb9d"] ;
13 -> 14 ;
15 [label=<entropy = 0.0<br/>samples = 1<br/>value = [0, 0, 1]<br/>class = High quality>, fillcolor="#8139e5"] ;
14 -> 15 ;
16 [label=<volatile acidity &le; 0.175<br/>entropy = 0.469<br/>samples = 10<br/>value = [0, 9, 1]<br/>class = Standard quality>, fillcolor="#4fe88f"] ;
14 -> 16 ;
17 [label=<volatile acidity &le; 0.165<br/>entropy = 1.0<br/>samples = 2<br/>value = [0, 1, 1]<br/>class = Standard quality>, fillcolor="#ffffff"] ;
16 -> 17 ;
18 [label=<entropy = 0.0<br/>samples = 1<br/>value = [0, 1, 0]<br/>class = Standard quality>, fillcolor="#39e581"] ;
17 -> 18 ;
19 [label=<entropy = 0.0<br/>samples = 1<br/>value = [0, 0, 1]<br/>class = High quality>, fillcolor="#8139e5"] ;
17 -> 19 ;
20 [label=<entropy = 0.0<br/>samples = 8<br/>value = [0, 8, 0]<br/>class = Standard quality>, fillcolor="#39e581"] ;
16 -> 20 ;
21 [label=<free sulfur dioxide &le; 29.5<br/>entropy = 1.0<br/>samples = 2<br/>value = [1, 0, 1]<br/>class = Low quality>, fillcolor="#ffffff"] ;
13 -> 21 ;
22 [label=<entropy = 0.0<br/>samples = 1<br/>value = [1, 0, 0]<br/>class = Low quality>, fillcolor="#e58139"] ;
21 -> 22 ;
23 [label=<entropy = 0.0<br/>samples = 1<br/>value = [0, 0, 1]<br/>class = High quality>, fillcolor="#8139e5"] ;
21 -> 23 ;
24 [label=<fixed acidity &le; 8.45<br/>entropy = 0.81<br/>samples = 390<br/>value = [11.0, 317.0, 62.0]<br/>class = Standard quality>, fillcolor="#65eb9d"] ;
2 -> 24 ;
25 [label=<sulphates &le; 0.815<br/>entropy = 0.755<br/>samples = 370<br/>value = [6, 304, 60]<br/>class = Standard quality>, fillcolor="#63eb9c"] ;
24 -> 25 ;
26 [label=<chlorides &le; 0.044<br/>entropy = 0.734<br/>samples = 366<br/>value = [6, 304, 56]<br/>class = Standard quality>, fillcolor="#61ea9a"] ;
25 -> 26 ;
27 [label=<density &le; 0.994<br/>entropy = 0.944<br/>samples = 152<br/>value = [4, 113, 35]<br/>class = Standard quality>, fillcolor="#7beeab"] ;
26 -> 27 ;
28 [label=<alcohol &le; 9.95<br/>entropy = 0.819<br/>samples = 90<br/>value = [4, 74, 12]<br/>class = Standard quality>, fillcolor="#62ea9b"] ;
27 -> 28 ;
29 [label=<entropy = 0.0<br/>samples = 27<br/>value = [0, 27, 0]<br/>class = Standard quality>, fillcolor="#39e581"] ;
28 -> 29 ;
30 [label=<free sulfur dioxide &le; 25.5<br/>entropy = 1.024<br/>samples = 63<br/>value = [4, 47, 12]<br/>class = Standard quality>, fillcolor="#77eda9"] ;
28 -> 30 ;
31 [label=<total sulfur dioxide &le; 78.5<br/>entropy = 1.34<br/>samples = 21<br/>value = [4, 13, 4]<br/>class = Standard quality>, fillcolor="#96f1bc"] ;
30 -> 31 ;
32 [label=<chlorides &le; 0.033<br/>entropy = 0.918<br/>samples = 6<br/>value = [0, 2, 4]<br/>class = High quality>, fillcolor="#c09cf2"] ;
31 -> 32 ;
33 [label=<entropy = 0.0<br/>samples = 2<br/>value = [0, 2, 0]<br/>class = Standard quality>, fillcolor="#39e581"] ;
32 -> 33 ;
34 [label=<entropy = 0.0<br/>samples = 4<br/>value = [0, 0, 4]<br/>class = High quality>, fillcolor="#8139e5"] ;
32 -> 34 ;
35 [label=<residual sugar &le; 1.45<br/>entropy = 0.837<br/>samples = 15<br/>value = [4, 11, 0]<br/>class = Standard quality>, fillcolor="#81eeaf"] ;
31 -> 35 ;
36 [label=<entropy = 0.0<br/>samples = 7<br/>value = [0, 7, 0]<br/>class = Standard quality>, fillcolor="#39e581"] ;
35 -> 36 ;
37 [label=<sulphates &le; 0.585<br/>entropy = 1.0<br/>samples = 8<br/>value = [4, 4, 0]<br/>class = Low quality>, fillcolor="#ffffff"] ;
35 -> 37 ;
38 [label=<density &le; 0.994<br/>entropy = 0.722<br/>samples = 5<br/>value = [1, 4, 0]<br/>class = Standard quality>, fillcolor="#6aeca0"] ;
37 -> 38 ;
39 [label=<entropy = 0.0<br/>samples = 4<br/>value = [0, 4, 0]<br/>class = Standard quality>, fillcolor="#39e581"] ;
38 -> 39 ;
40 [label=<entropy = 0.0<br/>samples = 1<br/>value = [1, 0, 0]<br/>class = Low quality>, fillcolor="#e58139"] ;
38 -> 40 ;
41 [label=<entropy = 0.0<br/>samples = 3<br/>value = [3, 0, 0]<br/>class = Low quality>, fillcolor="#e58139"] ;
37 -> 41 ;
42 [label=<sulphates &le; 0.545<br/>entropy = 0.702<br/>samples = 42<br/>value = [0, 34, 8]<br/>class = Standard quality>, fillcolor="#68eb9f"] ;
30 -> 42 ;
43 [label=<alcohol &le; 10.55<br/>entropy = 0.381<br/>samples = 27<br/>value = [0, 25, 2]<br/>class = Standard quality>, fillcolor="#49e78b"] ;
42 -> 43 ;
44 [label=<entropy = 0.0<br/>samples = 21<br/>value = [0, 21, 0]<br/>class = Standard quality>, fillcolor="#39e581"] ;
43 -> 44 ;
45 [label=<pH &le; 3.25<br/>entropy = 0.918<br/>samples = 6<br/>value = [0, 4, 2]<br/>class = Standard quality>, fillcolor="#9cf2c0"] ;
43 -> 45 ;
46 [label=<entropy = 0.0<br/>samples = 4<br/>value = [0, 4, 0]<br/>class = Standard quality>, fillcolor="#39e581"] ;
45 -> 46 ;
47 [label=<entropy = 0.0<br/>samples = 2<br/>value = [0, 0, 2]<br/>class = High quality>, fillcolor="#8139e5"] ;
45 -> 47 ;
48 [label=<fixed acidity &le; 7.35<br/>entropy = 0.971<br/>samples = 15<br/>value = [0, 9, 6]<br/>class = Standard quality>, fillcolor="#bdf6d5"] ;
42 -> 48 ;
49 [label=<volatile acidity &le; 0.205<br/>entropy = 0.811<br/>samples = 12<br/>value = [0, 9, 3]<br/>class = Standard quality>, fillcolor="#7beeab"] ;
48 -> 49 ;
50 [label=<fixed acidity &le; 6.05<br/>entropy = 0.469<br/>samples = 10<br/>value = [0, 9, 1]<br/>class = Standard quality>, fillcolor="#4fe88f"] ;
49 -> 50 ;
51 [label=<entropy = 0.0<br/>samples = 1<br/>value = [0, 0, 1]<br/>class = High quality>, fillcolor="#8139e5"] ;
50 -> 51 ;
52 [label=<entropy = 0.0<br/>samples = 9<br/>value = [0, 9, 0]<br/>class = Standard quality>, fillcolor="#39e581"] ;
50 -> 52 ;
53 [label=<entropy = 0.0<br/>samples = 2<br/>value = [0, 0, 2]<br/>class = High quality>, fillcolor="#8139e5"] ;
49 -> 53 ;
54 [label=<entropy = 0.0<br/>samples = 3<br/>value = [0, 0, 3]<br/>class = High quality>, fillcolor="#8139e5"] ;
48 -> 54 ;
55 [label=<total sulfur dioxide &le; 147.0<br/>entropy = 0.951<br/>samples = 62<br/>value = [0, 39, 23]<br/>class = Standard quality>, fillcolor="#aef4cb"] ;
27 -> 55 ;
56 [label=<residual sugar &le; 14.65<br/>entropy = 0.999<br/>samples = 37<br/>value = [0, 18, 19]<br/>class = High quality>, fillcolor="#f8f5fe"] ;
55 -> 56 ;
57 [label=<citric acid &le; 0.355<br/>entropy = 0.948<br/>samples = 30<br/>value = [0, 11, 19]<br/>class = High quality>, fillcolor="#caacf4"] ;
56 -> 57 ;
58 [label=<fixed acidity &le; 6.1<br/>entropy = 0.999<br/>samples = 23<br/>value = [0, 11, 12]<br/>class = High quality>, fillcolor="#f5effd"] ;
57 -> 58 ;
59 [label=<entropy = 0.0<br/>samples = 4<br/>value = [0, 4, 0]<br/>class = Standard quality>, fillcolor="#39e581"] ;
58 -> 59 ;
60 [label=<density &le; 0.996<br/>entropy = 0.949<br/>samples = 19<br/>value = [0, 7, 12]<br/>class = High quality>, fillcolor="#caacf4"] ;
58 -> 60 ;
61 [label=<volatile acidity &le; 0.205<br/>entropy = 0.811<br/>samples = 16<br/>value = [0, 4, 12]<br/>class = High quality>, fillcolor="#ab7bee"] ;
60 -> 61 ;
62 [label=<citric acid &le; 0.315<br/>entropy = 0.592<br/>samples = 14<br/>value = [0, 2, 12]<br/>class = High quality>, fillcolor="#965ae9"] ;
61 -> 62 ;
63 [label=<entropy = 0.0<br/>samples = 9<br/>value = [0, 0, 9]<br/>class = High quality>, fillcolor="#8139e5"] ;
62 -> 63 ;
64 [label=<alcohol &le; 9.35<br/>entropy = 0.971<br/>samples = 5<br/>value = [0, 2, 3]<br/>class = High quality>, fillcolor="#d5bdf6"] ;
62 -> 64 ;
65 [label=<entropy = 0.0<br/>samples = 3<br/>value = [0, 0, 3]<br/>class = High quality>, fillcolor="#8139e5"] ;
64 -> 65 ;
66 [label=<entropy = 0.0<br/>samples = 2<br/>value = [0, 2, 0]<br/>class = Standard quality>, fillcolor="#39e581"] ;
64 -> 66 ;
67 [label=<entropy = 0.0<br/>samples = 2<br/>value = [0, 2, 0]<br/>class = Standard quality>, fillcolor="#39e581"] ;
61 -> 67 ;
68 [label=<entropy = 0.0<br/>samples = 3<br/>value = [0, 3, 0]<br/>class = Standard quality>, fillcolor="#39e581"] ;
60 -> 68 ;
69 [label=<entropy = 0.0<br/>samples = 7<br/>value = [0, 0, 7]<br/>class = High quality>, fillcolor="#8139e5"] ;
57 -> 69 ;
70 [label=<entropy = 0.0<br/>samples = 7<br/>value = [0, 7, 0]<br/>class = Standard quality>, fillcolor="#39e581"] ;
56 -> 70 ;
71 [label=<pH &le; 2.96<br/>entropy = 0.634<br/>samples = 25<br/>value = [0, 21, 4]<br/>class = Standard quality>, fillcolor="#5fea99"] ;
55 -> 71 ;
72 [label=<entropy = 0.0<br/>samples = 2<br/>value = [0, 0, 2]<br/>class = High quality>, fillcolor="#8139e5"] ;
71 -> 72 ;
73 [label=<pH &le; 3.38<br/>entropy = 0.426<br/>samples = 23<br/>value = [0, 21, 2]<br/>class = Standard quality>, fillcolor="#4ce78d"] ;
71 -> 73 ;
74 [label=<entropy = 0.0<br/>samples = 17<br/>value = [0, 17, 0]<br/>class = Standard quality>, fillcolor="#39e581"] ;
73 -> 74 ;
75 [label=<chlorides &le; 0.041<br/>entropy = 0.918<br/>samples = 6<br/>value = [0, 4, 2]<br/>class = Standard quality>, fillcolor="#9cf2c0"] ;
73 -> 75 ;
76 [label=<entropy = 0.0<br/>samples = 2<br/>value = [0, 0, 2]<br/>class = High quality>, fillcolor="#8139e5"] ;
75 -> 76 ;
77 [label=<entropy = 0.0<br/>samples = 4<br/>value = [0, 4, 0]<br/>class = Standard quality>, fillcolor="#39e581"] ;
75 -> 77 ;
78 [label=<fixed acidity &le; 6.55<br/>entropy = 0.538<br/>samples = 214<br/>value = [2.0, 191.0, 21.0]<br/>class = Standard quality>, fillcolor="#51e890"] ;
26 -> 78 ;
79 [label=<fixed acidity &le; 5.25<br/>entropy = 0.383<br/>samples = 50<br/>value = [2, 47, 1]<br/>class = Standard quality>, fillcolor="#45e789"] ;
78 -> 79 ;
80 [label=<entropy = 0.0<br/>samples = 1<br/>value = [0, 0, 1]<br/>class = High quality>, fillcolor="#8139e5"] ;
79 -> 80 ;
81 [label=<sulphates &le; 0.35<br/>entropy = 0.246<br/>samples = 49<br/>value = [2.0, 47.0, 0.0]<br/>class = Standard quality>, fillcolor="#41e686"] ;
79 -> 81 ;
82 [label=<entropy = 0.0<br/>samples = 1<br/>value = [1, 0, 0]<br/>class = Low quality>, fillcolor="#e58139"] ;
81 -> 82 ;
83 [label=<total sulfur dioxide &le; 194.0<br/>entropy = 0.146<br/>samples = 48<br/>value = [1, 47, 0]<br/>class = Standard quality>, fillcolor="#3de684"] ;
81 -> 83 ;
84 [label=<entropy = 0.0<br/>samples = 45<br/>value = [0, 45, 0]<br/>class = Standard quality>, fillcolor="#39e581"] ;
83 -> 84 ;
85 [label=<sulphates &le; 0.6<br/>entropy = 0.918<br/>samples = 3<br/>value = [1, 2, 0]<br/>class = Standard quality>, fillcolor="#9cf2c0"] ;
83 -> 85 ;
86 [label=<entropy = 0.0<br/>samples = 2<br/>value = [0, 2, 0]<br/>class = Standard quality>, fillcolor="#39e581"] ;
85 -> 86 ;
87 [label=<entropy = 0.0<br/>samples = 1<br/>value = [1, 0, 0]<br/>class = Low quality>, fillcolor="#e58139"] ;
85 -> 87 ;
88 [label=<density &le; 0.994<br/>entropy = 0.535<br/>samples = 164<br/>value = [0, 144, 20]<br/>class = Standard quality>, fillcolor="#54e992"] ;
78 -> 88 ;
89 [label=<alcohol &le; 9.25<br/>entropy = 0.928<br/>samples = 32<br/>value = [0, 21, 11]<br/>class = Standard quality>, fillcolor="#a1f3c3"] ;
88 -> 89 ;
90 [label=<entropy = 0.0<br/>samples = 8<br/>value = [0, 8, 0]<br/>class = Standard quality>, fillcolor="#39e581"] ;
89 -> 90 ;
91 [label=<citric acid &le; 0.43<br/>entropy = 0.995<br/>samples = 24<br/>value = [0, 13, 11]<br/>class = Standard quality>, fillcolor="#e1fbec"] ;
89 -> 91 ;
92 [label=<free sulfur dioxide &le; 32.5<br/>entropy = 0.934<br/>samples = 20<br/>value = [0, 13, 7]<br/>class = Standard quality>, fillcolor="#a4f3c5"] ;
91 -> 92 ;
93 [label=<alcohol &le; 9.95<br/>entropy = 0.469<br/>samples = 10<br/>value = [0, 9, 1]<br/>class = Standard quality>, fillcolor="#4fe88f"] ;
92 -> 93 ;
94 [label=<entropy = 0.0<br/>samples = 1<br/>value = [0, 0, 1]<br/>class = High quality>, fillcolor="#8139e5"] ;
93 -> 94 ;
95 [label=<entropy = 0.0<br/>samples = 9<br/>value = [0, 9, 0]<br/>class = Standard quality>, fillcolor="#39e581"] ;
93 -> 95 ;
96 [label=<citric acid &le; 0.395<br/>entropy = 0.971<br/>samples = 10<br/>value = [0, 4, 6]<br/>class = High quality>, fillcolor="#d5bdf6"] ;
92 -> 96 ;
97 [label=<fixed acidity &le; 6.95<br/>entropy = 0.811<br/>samples = 8<br/>value = [0, 2, 6]<br/>class = High quality>, fillcolor="#ab7bee"] ;
96 -> 97 ;
98 [label=<density &le; 0.994<br/>entropy = 1.0<br/>samples = 4<br/>value = [0, 2, 2]<br/>class = Standard quality>, fillcolor="#ffffff"] ;
97 -> 98 ;
99 [label=<entropy = 0.0<br/>samples = 2<br/>value = [0, 0, 2]<br/>class = High quality>, fillcolor="#8139e5"] ;
98 -> 99 ;
100 [label=<entropy = 0.0<br/>samples = 2<br/>value = [0, 2, 0]<br/>class = Standard quality>, fillcolor="#39e581"] ;
98 -> 100 ;
101 [label=<entropy = 0.0<br/>samples = 4<br/>value = [0, 0, 4]<br/>class = High quality>, fillcolor="#8139e5"] ;
97 -> 101 ;
102 [label=<entropy = 0.0<br/>samples = 2<br/>value = [0, 2, 0]<br/>class = Standard quality>, fillcolor="#39e581"] ;
96 -> 102 ;
103 [label=<entropy = 0.0<br/>samples = 4<br/>value = [0, 0, 4]<br/>class = High quality>, fillcolor="#8139e5"] ;
91 -> 103 ;
104 [label=<alcohol &le; 9.15<br/>entropy = 0.359<br/>samples = 132<br/>value = [0, 123, 9]<br/>class = Standard quality>, fillcolor="#47e78a"] ;
88 -> 104 ;
105 [label=<total sulfur dioxide &le; 205.0<br/>entropy = 0.89<br/>samples = 13<br/>value = [0, 9, 4]<br/>class = Standard quality>, fillcolor="#91f1b9"] ;
104 -> 105 ;
106 [label=<total sulfur dioxide &le; 138.5<br/>entropy = 0.469<br/>samples = 10<br/>value = [0, 9, 1]<br/>class = Standard quality>, fillcolor="#4fe88f"] ;
105 -> 106 ;
107 [label=<entropy = 0.0<br/>samples = 1<br/>value = [0, 0, 1]<br/>class = High quality>, fillcolor="#8139e5"] ;
106 -> 107 ;
108 [label=<entropy = 0.0<br/>samples = 9<br/>value = [0, 9, 0]<br/>class = Standard quality>, fillcolor="#39e581"] ;
106 -> 108 ;
109 [label=<entropy = 0.0<br/>samples = 3<br/>value = [0, 0, 3]<br/>class = High quality>, fillcolor="#8139e5"] ;
105 -> 109 ;
110 [label=<density &le; 0.996<br/>entropy = 0.251<br/>samples = 119<br/>value = [0, 114, 5]<br/>class = Standard quality>, fillcolor="#42e687"] ;
104 -> 110 ;
111 [label=<sulphates &le; 0.445<br/>entropy = 0.419<br/>samples = 59<br/>value = [0, 54, 5]<br/>class = Standard quality>, fillcolor="#4be78d"] ;
110 -> 111 ;
112 [label=<pH &le; 3.495<br/>entropy = 0.702<br/>samples = 21<br/>value = [0, 17, 4]<br/>class = Standard quality>, fillcolor="#68eb9f"] ;
111 -> 112 ;
113 [label=<total sulfur dioxide &le; 157.0<br/>entropy = 0.485<br/>samples = 19<br/>value = [0, 17, 2]<br/>class = Standard quality>, fillcolor="#50e890"] ;
112 -> 113 ;
114 [label=<entropy = 0.0<br/>samples = 16<br/>value = [0, 16, 0]<br/>class = Standard quality>, fillcolor="#39e581"] ;
113 -> 114 ;
115 [label=<pH &le; 3.1<br/>entropy = 0.918<br/>samples = 3<br/>value = [0, 1, 2]<br/>class = High quality>, fillcolor="#c09cf2"] ;
113 -> 115 ;
116 [label=<entropy = 0.0<br/>samples = 1<br/>value = [0, 1, 0]<br/>class = Standard quality>, fillcolor="#39e581"] ;
115 -> 116 ;
117 [label=<entropy = 0.0<br/>samples = 2<br/>value = [0, 0, 2]<br/>class = High quality>, fillcolor="#8139e5"] ;
115 -> 117 ;
118 [label=<entropy = 0.0<br/>samples = 2<br/>value = [0, 0, 2]<br/>class = High quality>, fillcolor="#8139e5"] ;
112 -> 118 ;
119 [label=<residual sugar &le; 9.0<br/>entropy = 0.176<br/>samples = 38<br/>value = [0, 37, 1]<br/>class = Standard quality>, fillcolor="#3ee684"] ;
111 -> 119 ;
120 [label=<entropy = 0.0<br/>samples = 34<br/>value = [0, 34, 0]<br/>class = Standard quality>, fillcolor="#39e581"] ;
119 -> 120 ;
121 [label=<citric acid &le; 0.415<br/>entropy = 0.811<br/>samples = 4<br/>value = [0, 3, 1]<br/>class = Standard quality>, fillcolor="#7beeab"] ;
119 -> 121 ;
122 [label=<entropy = 0.0<br/>samples = 3<br/>value = [0, 3, 0]<br/>class = Standard quality>, fillcolor="#39e581"] ;
121 -> 122 ;
123 [label=<entropy = 0.0<br/>samples = 1<br/>value = [0, 0, 1]<br/>class = High quality>, fillcolor="#8139e5"] ;
121 -> 123 ;
124 [label=<entropy = 0.0<br/>samples = 60<br/>value = [0, 60, 0]<br/>class = Standard quality>, fillcolor="#39e581"] ;
110 -> 124 ;
125 [label=<entropy = 0.0<br/>samples = 4<br/>value = [0, 0, 4]<br/>class = High quality>, fillcolor="#8139e5"] ;
25 -> 125 ;
126 [label=<total sulfur dioxide &le; 118.5<br/>entropy = 1.236<br/>samples = 20<br/>value = [5, 13, 2]<br/>class = Standard quality>, fillcolor="#95f1bc"] ;
24 -> 126 ;
127 [label=<total sulfur dioxide &le; 93.0<br/>entropy = 0.994<br/>samples = 11<br/>value = [5, 6, 0]<br/>class = Standard quality>, fillcolor="#defbea"] ;
126 -> 127 ;
128 [label=<sulphates &le; 0.3<br/>entropy = 0.592<br/>samples = 7<br/>value = [1, 6, 0]<br/>class = Standard quality>, fillcolor="#5ae996"] ;
127 -> 128 ;
129 [label=<entropy = 0.0<br/>samples = 1<br/>value = [1, 0, 0]<br/>class = Low quality>, fillcolor="#e58139"] ;
128 -> 129 ;
130 [label=<entropy = 0.0<br/>samples = 6<br/>value = [0, 6, 0]<br/>class = Standard quality>, fillcolor="#39e581"] ;
128 -> 130 ;
131 [label=<entropy = 0.0<br/>samples = 4<br/>value = [4, 0, 0]<br/>class = Low quality>, fillcolor="#e58139"] ;
127 -> 131 ;
132 [label=<chlorides &le; 0.042<br/>entropy = 0.764<br/>samples = 9<br/>value = [0, 7, 2]<br/>class = Standard quality>, fillcolor="#72eca5"] ;
126 -> 132 ;
133 [label=<fixed acidity &le; 8.9<br/>entropy = 0.918<br/>samples = 3<br/>value = [0, 1, 2]<br/>class = High quality>, fillcolor="#c09cf2"] ;
132 -> 133 ;
134 [label=<entropy = 0.0<br/>samples = 1<br/>value = [0, 1, 0]<br/>class = Standard quality>, fillcolor="#39e581"] ;
133 -> 134 ;
135 [label=<entropy = 0.0<br/>samples = 2<br/>value = [0, 0, 2]<br/>class = High quality>, fillcolor="#8139e5"] ;
133 -> 135 ;
136 [label=<entropy = 0.0<br/>samples = 6<br/>value = [0, 6, 0]<br/>class = Standard quality>, fillcolor="#39e581"] ;
132 -> 136 ;
137 [label=<volatile acidity &le; 0.425<br/>entropy = 0.546<br/>samples = 1241<br/>value = [70, 1123, 48]<br/>class = Standard quality>, fillcolor="#4de88e"] ;
1 -> 137 ;
138 [label=<free sulfur dioxide &le; 15.5<br/>entropy = 0.485<br/>samples = 1115<br/>value = [42, 1025, 48]<br/>class = Standard quality>, fillcolor="#4ae78c"] ;
137 -> 138 ;
139 [label=<alcohol &le; 10.35<br/>entropy = 0.929<br/>samples = 93<br/>value = [17, 72, 4]<br/>class = Standard quality>, fillcolor="#70eca4"] ;
138 -> 139 ;
140 [label=<citric acid &le; 0.265<br/>entropy = 0.722<br/>samples = 70<br/>value = [14, 56, 0]<br/>class = Standard quality>, fillcolor="#6aeca0"] ;
139 -> 140 ;
141 [label=<density &le; 0.994<br/>entropy = 0.961<br/>samples = 26<br/>value = [10, 16, 0]<br/>class = Standard quality>, fillcolor="#b5f5d0"] ;
140 -> 141 ;
142 [label=<pH &le; 3.035<br/>entropy = 0.592<br/>samples = 14<br/>value = [2, 12, 0]<br/>class = Standard quality>, fillcolor="#5ae996"] ;
141 -> 142 ;
143 [label=<entropy = 0.0<br/>samples = 2<br/>value = [2, 0, 0]<br/>class = Low quality>, fillcolor="#e58139"] ;
142 -> 143 ;
144 [label=<entropy = 0.0<br/>samples = 12<br/>value = [0, 12, 0]<br/>class = Standard quality>, fillcolor="#39e581"] ;
142 -> 144 ;
145 [label=<total sulfur dioxide &le; 96.5<br/>entropy = 0.918<br/>samples = 12<br/>value = [8, 4, 0]<br/>class = Low quality>, fillcolor="#f2c09c"] ;
141 -> 145 ;
146 [label=<entropy = 0.0<br/>samples = 7<br/>value = [7, 0, 0]<br/>class = Low quality>, fillcolor="#e58139"] ;
145 -> 146 ;
147 [label=<citric acid &le; 0.22<br/>entropy = 0.722<br/>samples = 5<br/>value = [1, 4, 0]<br/>class = Standard quality>, fillcolor="#6aeca0"] ;
145 -> 147 ;
148 [label=<entropy = 0.0<br/>samples = 4<br/>value = [0, 4, 0]<br/>class = Standard quality>, fillcolor="#39e581"] ;
147 -> 148 ;
149 [label=<entropy = 0.0<br/>samples = 1<br/>value = [1, 0, 0]<br/>class = Low quality>, fillcolor="#e58139"] ;
147 -> 149 ;
150 [label=<free sulfur dioxide &le; 11.5<br/>entropy = 0.439<br/>samples = 44<br/>value = [4, 40, 0]<br/>class = Standard quality>, fillcolor="#4de88e"] ;
140 -> 150 ;
151 [label=<sulphates &le; 0.465<br/>entropy = 0.667<br/>samples = 23<br/>value = [4, 19, 0]<br/>class = Standard quality>, fillcolor="#63ea9c"] ;
150 -> 151 ;
152 [label=<entropy = 0.0<br/>samples = 9<br/>value = [0, 9, 0]<br/>class = Standard quality>, fillcolor="#39e581"] ;
151 -> 152 ;
153 [label=<alcohol &le; 9.55<br/>entropy = 0.863<br/>samples = 14<br/>value = [4, 10, 0]<br/>class = Standard quality>, fillcolor="#88efb3"] ;
151 -> 153 ;
154 [label=<entropy = 0.0<br/>samples = 2<br/>value = [2, 0, 0]<br/>class = Low quality>, fillcolor="#e58139"] ;
153 -> 154 ;
155 [label=<alcohol &le; 10.15<br/>entropy = 0.65<br/>samples = 12<br/>value = [2, 10, 0]<br/>class = Standard quality>, fillcolor="#61ea9a"] ;
153 -> 155 ;
156 [label=<fixed acidity &le; 6.45<br/>entropy = 0.439<br/>samples = 11<br/>value = [1, 10, 0]<br/>class = Standard quality>, fillcolor="#4de88e"] ;
155 -> 156 ;
157 [label=<residual sugar &le; 3.65<br/>entropy = 1.0<br/>samples = 2<br/>value = [1, 1, 0]<br/>class = Low quality>, fillcolor="#ffffff"] ;
156 -> 157 ;
158 [label=<entropy = 0.0<br/>samples = 1<br/>value = [0, 1, 0]<br/>class = Standard quality>, fillcolor="#39e581"] ;
157 -> 158 ;
159 [label=<entropy = 0.0<br/>samples = 1<br/>value = [1, 0, 0]<br/>class = Low quality>, fillcolor="#e58139"] ;
157 -> 159 ;
160 [label=<entropy = 0.0<br/>samples = 9<br/>value = [0, 9, 0]<br/>class = Standard quality>, fillcolor="#39e581"] ;
156 -> 160 ;
161 [label=<entropy = 0.0<br/>samples = 1<br/>value = [1, 0, 0]<br/>class = Low quality>, fillcolor="#e58139"] ;
155 -> 161 ;
162 [label=<entropy = 0.0<br/>samples = 21<br/>value = [0, 21, 0]<br/>class = Standard quality>, fillcolor="#39e581"] ;
150 -> 162 ;
163 [label=<total sulfur dioxide &le; 91.5<br/>entropy = 1.186<br/>samples = 23<br/>value = [3, 16, 4]<br/>class = Standard quality>, fillcolor="#82efaf"] ;
139 -> 163 ;
164 [label=<density &le; 0.992<br/>entropy = 0.544<br/>samples = 16<br/>value = [2, 14, 0]<br/>class = Standard quality>, fillcolor="#55e993"] ;
163 -> 164 ;
165 [label=<density &le; 0.992<br/>entropy = 1.0<br/>samples = 4<br/>value = [2, 2, 0]<br/>class = Low quality>, fillcolor="#ffffff"] ;
164 -> 165 ;
166 [label=<entropy = 0.0<br/>samples = 2<br/>value = [0, 2, 0]<br/>class = Standard quality>, fillcolor="#39e581"] ;
165 -> 166 ;
167 [label=<entropy = 0.0<br/>samples = 2<br/>value = [2, 0, 0]<br/>class = Low quality>, fillcolor="#e58139"] ;
165 -> 167 ;
168 [label=<entropy = 0.0<br/>samples = 12<br/>value = [0, 12, 0]<br/>class = Standard quality>, fillcolor="#39e581"] ;
164 -> 168 ;
169 [label=<total sulfur dioxide &le; 146.5<br/>entropy = 1.379<br/>samples = 7<br/>value = [1, 2, 4]<br/>class = High quality>, fillcolor="#cdb0f5"] ;
163 -> 169 ;
170 [label=<entropy = 0.0<br/>samples = 4<br/>value = [0, 0, 4]<br/>class = High quality>, fillcolor="#8139e5"] ;
169 -> 170 ;
171 [label=<sulphates &le; 0.48<br/>entropy = 0.918<br/>samples = 3<br/>value = [1, 2, 0]<br/>class = Standard quality>, fillcolor="#9cf2c0"] ;
169 -> 171 ;
172 [label=<entropy = 0.0<br/>samples = 1<br/>value = [1, 0, 0]<br/>class = Low quality>, fillcolor="#e58139"] ;
171 -> 172 ;
173 [label=<entropy = 0.0<br/>samples = 2<br/>value = [0, 2, 0]<br/>class = Standard quality>, fillcolor="#39e581"] ;
171 -> 173 ;
174 [label=<chlorides &le; 0.054<br/>entropy = 0.42<br/>samples = 1022<br/>value = [25, 953, 44]<br/>class = Standard quality>, fillcolor="#47e78a"] ;
138 -> 174 ;
175 [label=<free sulfur dioxide &le; 114.25<br/>entropy = 0.321<br/>samples = 779<br/>value = [7.0, 740.0, 32.0]<br/>class = Standard quality>, fillcolor="#43e688"] ;
174 -> 175 ;
176 [label=<pH &le; 3.435<br/>entropy = 0.285<br/>samples = 775<br/>value = [3, 740, 32]<br/>class = Standard quality>, fillcolor="#42e687"] ;
175 -> 176 ;
177 [label=<fixed acidity &le; 6.85<br/>entropy = 0.25<br/>samples = 743<br/>value = [3, 715, 25]<br/>class = Standard quality>, fillcolor="#41e686"] ;
176 -> 177 ;
178 [label=<alcohol &le; 9.95<br/>entropy = 0.117<br/>samples = 423<br/>value = [1, 417, 5]<br/>class = Standard quality>, fillcolor="#3ce583"] ;
177 -> 178 ;
179 [label=<entropy = 0.0<br/>samples = 300<br/>value = [0, 300, 0]<br/>class = Standard quality>, fillcolor="#39e581"] ;
178 -> 179 ;
180 [label=<chlorides &le; 0.042<br/>entropy = 0.313<br/>samples = 123<br/>value = [1, 117, 5]<br/>class = Standard quality>, fillcolor="#43e687"] ;
178 -> 180 ;
181 [label=<residual sugar &le; 4.85<br/>entropy = 0.434<br/>samples = 56<br/>value = [0, 51, 5]<br/>class = Standard quality>, fillcolor="#4ce88d"] ;
180 -> 181 ;
182 [label=<entropy = 0.0<br/>samples = 24<br/>value = [0, 24, 0]<br/>class = Standard quality>, fillcolor="#39e581"] ;
181 -> 182 ;
183 [label=<free sulfur dioxide &le; 28.5<br/>entropy = 0.625<br/>samples = 32<br/>value = [0, 27, 5]<br/>class = Standard quality>, fillcolor="#5eea98"] ;
181 -> 183 ;
184 [label=<entropy = 0.0<br/>samples = 11<br/>value = [0, 11, 0]<br/>class = Standard quality>, fillcolor="#39e581"] ;
183 -> 184 ;
185 [label=<residual sugar &le; 5.35<br/>entropy = 0.792<br/>samples = 21<br/>value = [0, 16, 5]<br/>class = Standard quality>, fillcolor="#77eda8"] ;
183 -> 185 ;
186 [label=<entropy = 0.0<br/>samples = 2<br/>value = [0, 0, 2]<br/>class = High quality>, fillcolor="#8139e5"] ;
185 -> 186 ;
187 [label=<sulphates &le; 0.475<br/>entropy = 0.629<br/>samples = 19<br/>value = [0, 16, 3]<br/>class = Standard quality>, fillcolor="#5eea99"] ;
185 -> 187 ;
188 [label=<entropy = 0.0<br/>samples = 10<br/>value = [0, 10, 0]<br/>class = Standard quality>, fillcolor="#39e581"] ;
187 -> 188 ;
189 [label=<sulphates &le; 0.55<br/>entropy = 0.918<br/>samples = 9<br/>value = [0, 6, 3]<br/>class = Standard quality>, fillcolor="#9cf2c0"] ;
187 -> 189 ;
190 [label=<total sulfur dioxide &le; 170.5<br/>entropy = 0.811<br/>samples = 4<br/>value = [0, 1, 3]<br/>class = High quality>, fillcolor="#ab7bee"] ;
189 -> 190 ;
191 [label=<entropy = 0.0<br/>samples = 3<br/>value = [0, 0, 3]<br/>class = High quality>, fillcolor="#8139e5"] ;
190 -> 191 ;
192 [label=<entropy = 0.0<br/>samples = 1<br/>value = [0, 1, 0]<br/>class = Standard quality>, fillcolor="#39e581"] ;
190 -> 192 ;
193 [label=<entropy = 0.0<br/>samples = 5<br/>value = [0, 5, 0]<br/>class = Standard quality>, fillcolor="#39e581"] ;
189 -> 193 ;
194 [label=<residual sugar &le; 1.25<br/>entropy = 0.112<br/>samples = 67<br/>value = [1, 66, 0]<br/>class = Standard quality>, fillcolor="#3ce583"] ;
180 -> 194 ;
195 [label=<citric acid &le; 0.24<br/>entropy = 1.0<br/>samples = 2<br/>value = [1, 1, 0]<br/>class = Low quality>, fillcolor="#ffffff"] ;
194 -> 195 ;
196 [label=<entropy = 0.0<br/>samples = 1<br/>value = [1, 0, 0]<br/>class = Low quality>, fillcolor="#e58139"] ;
195 -> 196 ;
197 [label=<entropy = 0.0<br/>samples = 1<br/>value = [0, 1, 0]<br/>class = Standard quality>, fillcolor="#39e581"] ;
195 -> 197 ;
198 [label=<entropy = 0.0<br/>samples = 65<br/>value = [0, 65, 0]<br/>class = Standard quality>, fillcolor="#39e581"] ;
194 -> 198 ;
199 [label=<residual sugar &le; 12.55<br/>entropy = 0.391<br/>samples = 320<br/>value = [2, 298, 20]<br/>class = Standard quality>, fillcolor="#48e78a"] ;
177 -> 199 ;
200 [label=<alcohol &le; 10.15<br/>entropy = 0.259<br/>samples = 216<br/>value = [2, 208, 6]<br/>class = Standard quality>, fillcolor="#41e686"] ;
199 -> 200 ;
201 [label=<total sulfur dioxide &le; 178.5<br/>entropy = 0.101<br/>samples = 152<br/>value = [2, 150, 0]<br/>class = Standard quality>, fillcolor="#3ce583"] ;
200 -> 201 ;
202 [label=<entropy = 0.0<br/>samples = 106<br/>value = [0, 106, 0]<br/>class = Standard quality>, fillcolor="#39e581"] ;
201 -> 202 ;
203 [label=<density &le; 0.994<br/>entropy = 0.258<br/>samples = 46<br/>value = [2, 44, 0]<br/>class = Standard quality>, fillcolor="#42e687"] ;
201 -> 203 ;
204 [label=<entropy = 0.0<br/>samples = 1<br/>value = [1, 0, 0]<br/>class = Low quality>, fillcolor="#e58139"] ;
203 -> 204 ;
205 [label=<alcohol &le; 8.85<br/>entropy = 0.154<br/>samples = 45<br/>value = [1, 44, 0]<br/>class = Standard quality>, fillcolor="#3de684"] ;
203 -> 205 ;
206 [label=<free sulfur dioxide &le; 67.5<br/>entropy = 0.918<br/>samples = 3<br/>value = [1, 2, 0]<br/>class = Standard quality>, fillcolor="#9cf2c0"] ;
205 -> 206 ;
207 [label=<entropy = 0.0<br/>samples = 1<br/>value = [1, 0, 0]<br/>class = Low quality>, fillcolor="#e58139"] ;
206 -> 207 ;
208 [label=<entropy = 0.0<br/>samples = 2<br/>value = [0, 2, 0]<br/>class = Standard quality>, fillcolor="#39e581"] ;
206 -> 208 ;
209 [label=<entropy = 0.0<br/>samples = 42<br/>value = [0, 42, 0]<br/>class = Standard quality>, fillcolor="#39e581"] ;
205 -> 209 ;
210 [label=<sulphates &le; 0.735<br/>entropy = 0.449<br/>samples = 64<br/>value = [0, 58, 6]<br/>class = Standard quality>, fillcolor="#4de88e"] ;
200 -> 210 ;
211 [label=<residual sugar &le; 7.05<br/>entropy = 0.4<br/>samples = 63<br/>value = [0, 58, 5]<br/>class = Standard quality>, fillcolor="#4ae78c"] ;
210 -> 211 ;
212 [label=<entropy = 0.0<br/>samples = 32<br/>value = [0, 32, 0]<br/>class = Standard quality>, fillcolor="#39e581"] ;
211 -> 212 ;
213 [label=<total sulfur dioxide &le; 162.5<br/>entropy = 0.637<br/>samples = 31<br/>value = [0, 26, 5]<br/>class = Standard quality>, fillcolor="#5fea99"] ;
211 -> 213 ;
214 [label=<total sulfur dioxide &le; 157.0<br/>entropy = 0.852<br/>samples = 18<br/>value = [0, 13, 5]<br/>class = Standard quality>, fillcolor="#85efb1"] ;
213 -> 214 ;
215 [label=<pH &le; 3.145<br/>entropy = 0.696<br/>samples = 16<br/>value = [0, 13, 3]<br/>class = Standard quality>, fillcolor="#67eb9e"] ;
214 -> 215 ;
216 [label=<entropy = 0.0<br/>samples = 7<br/>value = [0, 7, 0]<br/>class = Standard quality>, fillcolor="#39e581"] ;
215 -> 216 ;
217 [label=<pH &le; 3.175<br/>entropy = 0.918<br/>samples = 9<br/>value = [0, 6, 3]<br/>class = Standard quality>, fillcolor="#9cf2c0"] ;
215 -> 217 ;
218 [label=<residual sugar &le; 9.8<br/>entropy = 0.811<br/>samples = 4<br/>value = [0, 1, 3]<br/>class = High quality>, fillcolor="#ab7bee"] ;
217 -> 218 ;
219 [label=<entropy = 0.0<br/>samples = 3<br/>value = [0, 0, 3]<br/>class = High quality>, fillcolor="#8139e5"] ;
218 -> 219 ;
220 [label=<entropy = 0.0<br/>samples = 1<br/>value = [0, 1, 0]<br/>class = Standard quality>, fillcolor="#39e581"] ;
218 -> 220 ;
221 [label=<entropy = 0.0<br/>samples = 5<br/>value = [0, 5, 0]<br/>class = Standard quality>, fillcolor="#39e581"] ;
217 -> 221 ;
222 [label=<entropy = 0.0<br/>samples = 2<br/>value = [0, 0, 2]<br/>class = High quality>, fillcolor="#8139e5"] ;
214 -> 222 ;
223 [label=<entropy = 0.0<br/>samples = 13<br/>value = [0, 13, 0]<br/>class = Standard quality>, fillcolor="#39e581"] ;
213 -> 223 ;
224 [label=<entropy = 0.0<br/>samples = 1<br/>value = [0, 0, 1]<br/>class = High quality>, fillcolor="#8139e5"] ;
210 -> 224 ;
225 [label=<free sulfur dioxide &le; 51.5<br/>entropy = 0.57<br/>samples = 104<br/>value = [0, 90, 14]<br/>class = Standard quality>, fillcolor="#58e995"] ;
199 -> 225 ;
226 [label=<residual sugar &le; 13.65<br/>entropy = 0.779<br/>samples = 52<br/>value = [0, 40, 12]<br/>class = Standard quality>, fillcolor="#74eda7"] ;
225 -> 226 ;
227 [label=<pH &le; 3.185<br/>entropy = 0.985<br/>samples = 14<br/>value = [0, 6, 8]<br/>class = High quality>, fillcolor="#e0cef8"] ;
226 -> 227 ;
228 [label=<free sulfur dioxide &le; 32.0<br/>entropy = 0.722<br/>samples = 10<br/>value = [0, 2, 8]<br/>class = High quality>, fillcolor="#a06aec"] ;
227 -> 228 ;
229 [label=<entropy = 0.0<br/>samples = 2<br/>value = [0, 2, 0]<br/>class = Standard quality>, fillcolor="#39e581"] ;
228 -> 229 ;
230 [label=<entropy = 0.0<br/>samples = 8<br/>value = [0, 0, 8]<br/>class = High quality>, fillcolor="#8139e5"] ;
228 -> 230 ;
231 [label=<entropy = 0.0<br/>samples = 4<br/>value = [0, 4, 0]<br/>class = Standard quality>, fillcolor="#39e581"] ;
227 -> 231 ;
232 [label=<volatile acidity &le; 0.225<br/>entropy = 0.485<br/>samples = 38<br/>value = [0, 34, 4]<br/>class = Standard quality>, fillcolor="#50e890"] ;
226 -> 232 ;
233 [label=<entropy = 0.0<br/>samples = 2<br/>value = [0, 0, 2]<br/>class = High quality>, fillcolor="#8139e5"] ;
232 -> 233 ;
234 [label=<total sulfur dioxide &le; 192.5<br/>entropy = 0.31<br/>samples = 36<br/>value = [0, 34, 2]<br/>class = Standard quality>, fillcolor="#45e788"] ;
232 -> 234 ;
235 [label=<entropy = 0.0<br/>samples = 23<br/>value = [0, 23, 0]<br/>class = Standard quality>, fillcolor="#39e581"] ;
234 -> 235 ;
236 [label=<total sulfur dioxide &le; 196.0<br/>entropy = 0.619<br/>samples = 13<br/>value = [0, 11, 2]<br/>class = Standard quality>, fillcolor="#5dea98"] ;
234 -> 236 ;
237 [label=<entropy = 0.0<br/>samples = 2<br/>value = [0, 0, 2]<br/>class = High quality>, fillcolor="#8139e5"] ;
236 -> 237 ;
238 [label=<entropy = 0.0<br/>samples = 11<br/>value = [0, 11, 0]<br/>class = Standard quality>, fillcolor="#39e581"] ;
236 -> 238 ;
239 [label=<chlorides &le; 0.033<br/>entropy = 0.235<br/>samples = 52<br/>value = [0, 50, 2]<br/>class = Standard quality>, fillcolor="#41e686"] ;
225 -> 239 ;
240 [label=<entropy = 0.0<br/>samples = 1<br/>value = [0, 0, 1]<br/>class = High quality>, fillcolor="#8139e5"] ;
239 -> 240 ;
241 [label=<pH &le; 3.265<br/>entropy = 0.139<br/>samples = 51<br/>value = [0, 50, 1]<br/>class = Standard quality>, fillcolor="#3de684"] ;
239 -> 241 ;
242 [label=<entropy = 0.0<br/>samples = 47<br/>value = [0, 47, 0]<br/>class = Standard quality>, fillcolor="#39e581"] ;
241 -> 242 ;
243 [label=<citric acid &le; 0.415<br/>entropy = 0.811<br/>samples = 4<br/>value = [0, 3, 1]<br/>class = Standard quality>, fillcolor="#7beeab"] ;
241 -> 243 ;
244 [label=<entropy = 0.0<br/>samples = 3<br/>value = [0, 3, 0]<br/>class = Standard quality>, fillcolor="#39e581"] ;
243 -> 244 ;
245 [label=<entropy = 0.0<br/>samples = 1<br/>value = [0, 0, 1]<br/>class = High quality>, fillcolor="#8139e5"] ;
243 -> 245 ;
246 [label=<volatile acidity &le; 0.292<br/>entropy = 0.758<br/>samples = 32<br/>value = [0, 25, 7]<br/>class = Standard quality>, fillcolor="#70eca4"] ;
176 -> 246 ;
247 [label=<sulphates &le; 0.475<br/>entropy = 0.918<br/>samples = 21<br/>value = [0, 14, 7]<br/>class = Standard quality>, fillcolor="#9cf2c0"] ;
246 -> 247 ;
248 [label=<entropy = 0.0<br/>samples = 6<br/>value = [0, 6, 0]<br/>class = Standard quality>, fillcolor="#39e581"] ;
247 -> 248 ;
249 [label=<total sulfur dioxide &le; 118.0<br/>entropy = 0.997<br/>samples = 15<br/>value = [0, 8, 7]<br/>class = Standard quality>, fillcolor="#e6fcef"] ;
247 -> 249 ;
250 [label=<entropy = 0.0<br/>samples = 3<br/>value = [0, 3, 0]<br/>class = Standard quality>, fillcolor="#39e581"] ;
249 -> 250 ;
251 [label=<sulphates &le; 0.59<br/>entropy = 0.98<br/>samples = 12<br/>value = [0, 5, 7]<br/>class = High quality>, fillcolor="#dbc6f8"] ;
249 -> 251 ;
252 [label=<free sulfur dioxide &le; 27.0<br/>entropy = 0.592<br/>samples = 7<br/>value = [0, 1, 6]<br/>class = High quality>, fillcolor="#965ae9"] ;
251 -> 252 ;
253 [label=<entropy = 0.0<br/>samples = 1<br/>value = [0, 1, 0]<br/>class = Standard quality>, fillcolor="#39e581"] ;
252 -> 253 ;
254 [label=<entropy = 0.0<br/>samples = 6<br/>value = [0, 0, 6]<br/>class = High quality>, fillcolor="#8139e5"] ;
252 -> 254 ;
255 [label=<total sulfur dioxide &le; 158.0<br/>entropy = 0.722<br/>samples = 5<br/>value = [0, 4, 1]<br/>class = Standard quality>, fillcolor="#6aeca0"] ;
251 -> 255 ;
256 [label=<entropy = 0.0<br/>samples = 1<br/>value = [0, 0, 1]<br/>class = High quality>, fillcolor="#8139e5"] ;
255 -> 256 ;
257 [label=<entropy = 0.0<br/>samples = 4<br/>value = [0, 4, 0]<br/>class = Standard quality>, fillcolor="#39e581"] ;
255 -> 257 ;
258 [label=<entropy = 0.0<br/>samples = 11<br/>value = [0, 11, 0]<br/>class = Standard quality>, fillcolor="#39e581"] ;
246 -> 258 ;
259 [label=<entropy = 0.0<br/>samples = 4<br/>value = [4, 0, 0]<br/>class = Low quality>, fillcolor="#e58139"] ;
175 -> 259 ;
260 [label=<volatile acidity &le; 0.257<br/>entropy = 0.659<br/>samples = 243<br/>value = [18, 213, 12]<br/>class = Standard quality>, fillcolor="#53e892"] ;
174 -> 260 ;
261 [label=<fixed acidity &le; 7.55<br/>entropy = 0.742<br/>samples = 84<br/>value = [3, 71, 10]<br/>class = Standard quality>, fillcolor="#5cea97"] ;
260 -> 261 ;
262 [label=<chlorides &le; 0.064<br/>entropy = 0.562<br/>samples = 76<br/>value = [0, 66, 10]<br/>class = Standard quality>, fillcolor="#57e994"] ;
261 -> 262 ;
263 [label=<free sulfur dioxide &le; 44.5<br/>entropy = 0.706<br/>samples = 52<br/>value = [0, 42, 10]<br/>class = Standard quality>, fillcolor="#68eb9f"] ;
262 -> 263 ;
264 [label=<chlorides &le; 0.062<br/>entropy = 0.258<br/>samples = 23<br/>value = [0, 22, 1]<br/>class = Standard quality>, fillcolor="#42e687"] ;
263 -> 264 ;
265 [label=<entropy = 0.0<br/>samples = 22<br/>value = [0, 22, 0]<br/>class = Standard quality>, fillcolor="#39e581"] ;
264 -> 265 ;
266 [label=<entropy = 0.0<br/>samples = 1<br/>value = [0, 0, 1]<br/>class = High quality>, fillcolor="#8139e5"] ;
264 -> 266 ;
267 [label=<density &le; 0.995<br/>entropy = 0.894<br/>samples = 29<br/>value = [0, 20, 9]<br/>class = Standard quality>, fillcolor="#92f1ba"] ;
263 -> 267 ;
268 [label=<entropy = 0.0<br/>samples = 5<br/>value = [0, 0, 5]<br/>class = High quality>, fillcolor="#8139e5"] ;
267 -> 268 ;
269 [label=<total sulfur dioxide &le; 191.5<br/>entropy = 0.65<br/>samples = 24<br/>value = [0, 20, 4]<br/>class = Standard quality>, fillcolor="#61ea9a"] ;
267 -> 269 ;
270 [label=<entropy = 0.0<br/>samples = 15<br/>value = [0, 15, 0]<br/>class = Standard quality>, fillcolor="#39e581"] ;
269 -> 270 ;
271 [label=<pH &le; 2.99<br/>entropy = 0.991<br/>samples = 9<br/>value = [0, 5, 4]<br/>class = Standard quality>, fillcolor="#d7fae6"] ;
269 -> 271 ;
272 [label=<entropy = 0.0<br/>samples = 2<br/>value = [0, 0, 2]<br/>class = High quality>, fillcolor="#8139e5"] ;
271 -> 272 ;
273 [label=<chlorides &le; 0.056<br/>entropy = 0.863<br/>samples = 7<br/>value = [0, 5, 2]<br/>class = Standard quality>, fillcolor="#88efb3"] ;
271 -> 273 ;
274 [label=<entropy = 0.0<br/>samples = 2<br/>value = [0, 0, 2]<br/>class = High quality>, fillcolor="#8139e5"] ;
273 -> 274 ;
275 [label=<entropy = 0.0<br/>samples = 5<br/>value = [0, 5, 0]<br/>class = Standard quality>, fillcolor="#39e581"] ;
273 -> 275 ;
276 [label=<entropy = 0.0<br/>samples = 24<br/>value = [0, 24, 0]<br/>class = Standard quality>, fillcolor="#39e581"] ;
262 -> 276 ;
277 [label=<free sulfur dioxide &le; 38.0<br/>entropy = 0.954<br/>samples = 8<br/>value = [3, 5, 0]<br/>class = Standard quality>, fillcolor="#b0f5cd"] ;
261 -> 277 ;
278 [label=<total sulfur dioxide &le; 138.0<br/>entropy = 0.811<br/>samples = 4<br/>value = [3, 1, 0]<br/>class = Low quality>, fillcolor="#eeab7b"] ;
277 -> 278 ;
279 [label=<entropy = 0.0<br/>samples = 1<br/>value = [0, 1, 0]<br/>class = Standard quality>, fillcolor="#39e581"] ;
278 -> 279 ;
280 [label=<entropy = 0.0<br/>samples = 3<br/>value = [3, 0, 0]<br/>class = Low quality>, fillcolor="#e58139"] ;
278 -> 280 ;
281 [label=<entropy = 0.0<br/>samples = 4<br/>value = [0, 4, 0]<br/>class = Standard quality>, fillcolor="#39e581"] ;
277 -> 281 ;
282 [label=<density &le; 0.998<br/>entropy = 0.546<br/>samples = 159<br/>value = [15.0, 142.0, 2.0]<br/>class = Standard quality>, fillcolor="#50e890"] ;
260 -> 282 ;
283 [label=<pH &le; 3.38<br/>entropy = 0.355<br/>samples = 120<br/>value = [6, 113, 1]<br/>class = Standard quality>, fillcolor="#45e789"] ;
282 -> 283 ;
284 [label=<sulphates &le; 0.345<br/>entropy = 0.21<br/>samples = 107<br/>value = [2.0, 104.0, 1.0]<br/>class = Standard quality>, fillcolor="#3fe685"] ;
283 -> 284 ;
285 [label=<entropy = 0.0<br/>samples = 1<br/>value = [1, 0, 0]<br/>class = Low quality>, fillcolor="#e58139"] ;
284 -> 285 ;
286 [label=<alcohol &le; 10.45<br/>entropy = 0.154<br/>samples = 106<br/>value = [1, 104, 1]<br/>class = Standard quality>, fillcolor="#3de583"] ;
284 -> 286 ;
287 [label=<free sulfur dioxide &le; 23.5<br/>entropy = 0.079<br/>samples = 102<br/>value = [0, 101, 1]<br/>class = Standard quality>, fillcolor="#3be582"] ;
286 -> 287 ;
288 [label=<sulphates &le; 0.445<br/>entropy = 0.503<br/>samples = 9<br/>value = [0, 8, 1]<br/>class = Standard quality>, fillcolor="#52e891"] ;
287 -> 288 ;
289 [label=<entropy = 0.0<br/>samples = 1<br/>value = [0, 0, 1]<br/>class = High quality>, fillcolor="#8139e5"] ;
288 -> 289 ;
290 [label=<entropy = 0.0<br/>samples = 8<br/>value = [0, 8, 0]<br/>class = Standard quality>, fillcolor="#39e581"] ;
288 -> 290 ;
291 [label=<entropy = 0.0<br/>samples = 93<br/>value = [0, 93, 0]<br/>class = Standard quality>, fillcolor="#39e581"] ;
287 -> 291 ;
292 [label=<fixed acidity &le; 6.95<br/>entropy = 0.811<br/>samples = 4<br/>value = [1, 3, 0]<br/>class = Standard quality>, fillcolor="#7beeab"] ;
286 -> 292 ;
293 [label=<entropy = 0.0<br/>samples = 1<br/>value = [1, 0, 0]<br/>class = Low quality>, fillcolor="#e58139"] ;
292 -> 293 ;
294 [label=<entropy = 0.0<br/>samples = 3<br/>value = [0, 3, 0]<br/>class = Standard quality>, fillcolor="#39e581"] ;
292 -> 294 ;
295 [label=<chlorides &le; 0.084<br/>entropy = 0.89<br/>samples = 13<br/>value = [4, 9, 0]<br/>class = Standard quality>, fillcolor="#91f1b9"] ;
283 -> 295 ;
296 [label=<total sulfur dioxide &le; 177.0<br/>entropy = 0.684<br/>samples = 11<br/>value = [2, 9, 0]<br/>class = Standard quality>, fillcolor="#65eb9d"] ;
295 -> 296 ;
297 [label=<entropy = 0.0<br/>samples = 1<br/>value = [1, 0, 0]<br/>class = Low quality>, fillcolor="#e58139"] ;
296 -> 297 ;
298 [label=<pH &le; 3.41<br/>entropy = 0.469<br/>samples = 10<br/>value = [1, 9, 0]<br/>class = Standard quality>, fillcolor="#4fe88f"] ;
296 -> 298 ;
299 [label=<entropy = 0.0<br/>samples = 1<br/>value = [1, 0, 0]<br/>class = Low quality>, fillcolor="#e58139"] ;
298 -> 299 ;
300 [label=<entropy = 0.0<br/>samples = 9<br/>value = [0, 9, 0]<br/>class = Standard quality>, fillcolor="#39e581"] ;
298 -> 300 ;
301 [label=<entropy = 0.0<br/>samples = 2<br/>value = [2, 0, 0]<br/>class = Low quality>, fillcolor="#e58139"] ;
295 -> 301 ;
302 [label=<density &le; 0.999<br/>entropy = 0.942<br/>samples = 39<br/>value = [9, 29, 1]<br/>class = Standard quality>, fillcolor="#7beeab"] ;
282 -> 302 ;
303 [label=<pH &le; 3.015<br/>entropy = 1.272<br/>samples = 16<br/>value = [8, 7, 1]<br/>class = Low quality>, fillcolor="#fcf1e9"] ;
302 -> 303 ;
304 [label=<entropy = 0.0<br/>samples = 4<br/>value = [0, 4, 0]<br/>class = Standard quality>, fillcolor="#39e581"] ;
303 -> 304 ;
305 [label=<fixed acidity &le; 7.0<br/>entropy = 1.189<br/>samples = 12<br/>value = [8, 3, 1]<br/>class = Low quality>, fillcolor="#f1b991"] ;
303 -> 305 ;
306 [label=<fixed acidity &le; 6.55<br/>entropy = 1.0<br/>samples = 6<br/>value = [3, 3, 0]<br/>class = Low quality>, fillcolor="#ffffff"] ;
305 -> 306 ;
307 [label=<entropy = 0.0<br/>samples = 3<br/>value = [3, 0, 0]<br/>class = Low quality>, fillcolor="#e58139"] ;
306 -> 307 ;
308 [label=<entropy = 0.0<br/>samples = 3<br/>value = [0, 3, 0]<br/>class = Standard quality>, fillcolor="#39e581"] ;
306 -> 308 ;
309 [label=<fixed acidity &le; 7.2<br/>entropy = 0.65<br/>samples = 6<br/>value = [5, 0, 1]<br/>class = Low quality>, fillcolor="#ea9a61"] ;
305 -> 309 ;
310 [label=<entropy = 0.0<br/>samples = 1<br/>value = [0, 0, 1]<br/>class = High quality>, fillcolor="#8139e5"] ;
309 -> 310 ;
311 [label=<entropy = 0.0<br/>samples = 5<br/>value = [5, 0, 0]<br/>class = Low quality>, fillcolor="#e58139"] ;
309 -> 311 ;
312 [label=<fixed acidity &le; 7.95<br/>entropy = 0.258<br/>samples = 23<br/>value = [1, 22, 0]<br/>class = Standard quality>, fillcolor="#42e687"] ;
302 -> 312 ;
313 [label=<entropy = 0.0<br/>samples = 21<br/>value = [0, 21, 0]<br/>class = Standard quality>, fillcolor="#39e581"] ;
312 -> 313 ;
314 [label=<pH &le; 3.315<br/>entropy = 1.0<br/>samples = 2<br/>value = [1, 1, 0]<br/>class = Low quality>, fillcolor="#ffffff"] ;
312 -> 314 ;
315 [label=<entropy = 0.0<br/>samples = 1<br/>value = [1, 0, 0]<br/>class = Low quality>, fillcolor="#e58139"] ;
314 -> 315 ;
316 [label=<entropy = 0.0<br/>samples = 1<br/>value = [0, 1, 0]<br/>class = Standard quality>, fillcolor="#39e581"] ;
314 -> 316 ;
317 [label=<free sulfur dioxide &le; 10.5<br/>entropy = 0.764<br/>samples = 126<br/>value = [28, 98, 0]<br/>class = Standard quality>, fillcolor="#72eca5"] ;
137 -> 317 ;
318 [label=<fixed acidity &le; 6.85<br/>entropy = 0.845<br/>samples = 11<br/>value = [8, 3, 0]<br/>class = Low quality>, fillcolor="#efb083"] ;
317 -> 318 ;
319 [label=<entropy = 0.0<br/>samples = 7<br/>value = [7, 0, 0]<br/>class = Low quality>, fillcolor="#e58139"] ;
318 -> 319 ;
320 [label=<volatile acidity &le; 0.435<br/>entropy = 0.811<br/>samples = 4<br/>value = [1, 3, 0]<br/>class = Standard quality>, fillcolor="#7beeab"] ;
318 -> 320 ;
321 [label=<entropy = 0.0<br/>samples = 1<br/>value = [1, 0, 0]<br/>class = Low quality>, fillcolor="#e58139"] ;
320 -> 321 ;
322 [label=<entropy = 0.0<br/>samples = 3<br/>value = [0, 3, 0]<br/>class = Standard quality>, fillcolor="#39e581"] ;
320 -> 322 ;
323 [label=<volatile acidity &le; 0.598<br/>entropy = 0.667<br/>samples = 115<br/>value = [20, 95, 0]<br/>class = Standard quality>, fillcolor="#63ea9c"] ;
317 -> 323 ;
324 [label=<residual sugar &le; 0.95<br/>entropy = 0.507<br/>samples = 89<br/>value = [10, 79, 0]<br/>class = Standard quality>, fillcolor="#52e891"] ;
323 -> 324 ;
325 [label=<pH &le; 3.22<br/>entropy = 0.811<br/>samples = 4<br/>value = [3, 1, 0]<br/>class = Low quality>, fillcolor="#eeab7b"] ;
324 -> 325 ;
326 [label=<entropy = 0.0<br/>samples = 3<br/>value = [3, 0, 0]<br/>class = Low quality>, fillcolor="#e58139"] ;
325 -> 326 ;
327 [label=<entropy = 0.0<br/>samples = 1<br/>value = [0, 1, 0]<br/>class = Standard quality>, fillcolor="#39e581"] ;
325 -> 327 ;
328 [label=<chlorides &le; 0.045<br/>entropy = 0.41<br/>samples = 85<br/>value = [7, 78, 0]<br/>class = Standard quality>, fillcolor="#4be78c"] ;
324 -> 328 ;
329 [label=<entropy = 0.0<br/>samples = 25<br/>value = [0, 25, 0]<br/>class = Standard quality>, fillcolor="#39e581"] ;
328 -> 329 ;
330 [label=<residual sugar &le; 10.95<br/>entropy = 0.52<br/>samples = 60<br/>value = [7, 53, 0]<br/>class = Standard quality>, fillcolor="#53e892"] ;
328 -> 330 ;
331 [label=<sulphates &le; 0.445<br/>entropy = 0.641<br/>samples = 43<br/>value = [7.0, 36.0, 0.0]<br/>class = Standard quality>, fillcolor="#5fea9a"] ;
330 -> 331 ;
332 [label=<entropy = 0.0<br/>samples = 14<br/>value = [0, 14, 0]<br/>class = Standard quality>, fillcolor="#39e581"] ;
331 -> 332 ;
333 [label=<fixed acidity &le; 6.15<br/>entropy = 0.797<br/>samples = 29<br/>value = [7, 22, 0]<br/>class = Standard quality>, fillcolor="#78eda9"] ;
331 -> 333 ;
334 [label=<entropy = 0.0<br/>samples = 6<br/>value = [0, 6, 0]<br/>class = Standard quality>, fillcolor="#39e581"] ;
333 -> 334 ;
335 [label=<volatile acidity &le; 0.53<br/>entropy = 0.887<br/>samples = 23<br/>value = [7, 16, 0]<br/>class = Standard quality>, fillcolor="#90f0b8"] ;
333 -> 335 ;
336 [label=<citric acid &le; 0.445<br/>entropy = 0.722<br/>samples = 20<br/>value = [4, 16, 0]<br/>class = Standard quality>, fillcolor="#6aeca0"] ;
335 -> 336 ;
337 [label=<free sulfur dioxide &le; 42.5<br/>entropy = 0.503<br/>samples = 18<br/>value = [2, 16, 0]<br/>class = Standard quality>, fillcolor="#52e891"] ;
336 -> 337 ;
338 [label=<entropy = 0.0<br/>samples = 12<br/>value = [0, 12, 0]<br/>class = Standard quality>, fillcolor="#39e581"] ;
337 -> 338 ;
339 [label=<density &le; 0.994<br/>entropy = 0.918<br/>samples = 6<br/>value = [2, 4, 0]<br/>class = Standard quality>, fillcolor="#9cf2c0"] ;
337 -> 339 ;
340 [label=<entropy = 0.0<br/>samples = 2<br/>value = [2, 0, 0]<br/>class = Low quality>, fillcolor="#e58139"] ;
339 -> 340 ;
341 [label=<entropy = 0.0<br/>samples = 4<br/>value = [0, 4, 0]<br/>class = Standard quality>, fillcolor="#39e581"] ;
339 -> 341 ;
342 [label=<entropy = 0.0<br/>samples = 2<br/>value = [2, 0, 0]<br/>class = Low quality>, fillcolor="#e58139"] ;
336 -> 342 ;
343 [label=<entropy = 0.0<br/>samples = 3<br/>value = [3, 0, 0]<br/>class = Low quality>, fillcolor="#e58139"] ;
335 -> 343 ;
344 [label=<entropy = 0.0<br/>samples = 17<br/>value = [0, 17, 0]<br/>class = Standard quality>, fillcolor="#39e581"] ;
330 -> 344 ;
345 [label=<sulphates &le; 0.585<br/>entropy = 0.961<br/>samples = 26<br/>value = [10, 16, 0]<br/>class = Standard quality>, fillcolor="#b5f5d0"] ;
323 -> 345 ;
346 [label=<chlorides &le; 0.049<br/>entropy = 0.792<br/>samples = 21<br/>value = [5, 16, 0]<br/>class = Standard quality>, fillcolor="#77eda8"] ;
345 -> 346 ;
347 [label=<entropy = 0.0<br/>samples = 7<br/>value = [0, 7, 0]<br/>class = Standard quality>, fillcolor="#39e581"] ;
346 -> 347 ;
348 [label=<citric acid &le; 0.12<br/>entropy = 0.94<br/>samples = 14<br/>value = [5, 9, 0]<br/>class = Standard quality>, fillcolor="#a7f3c7"] ;
346 -> 348 ;
349 [label=<entropy = 0.0<br/>samples = 3<br/>value = [3, 0, 0]<br/>class = Low quality>, fillcolor="#e58139"] ;
348 -> 349 ;
350 [label=<chlorides &le; 0.062<br/>entropy = 0.684<br/>samples = 11<br/>value = [2, 9, 0]<br/>class = Standard quality>, fillcolor="#65eb9d"] ;
348 -> 350 ;
351 [label=<citric acid &le; 0.315<br/>entropy = 1.0<br/>samples = 4<br/>value = [2, 2, 0]<br/>class = Low quality>, fillcolor="#ffffff"] ;
350 -> 351 ;
352 [label=<entropy = 0.0<br/>samples = 1<br/>value = [0, 1, 0]<br/>class = Standard quality>, fillcolor="#39e581"] ;
351 -> 352 ;
353 [label=<density &le; 0.998<br/>entropy = 0.918<br/>samples = 3<br/>value = [2, 1, 0]<br/>class = Low quality>, fillcolor="#f2c09c"] ;
351 -> 353 ;
354 [label=<entropy = 0.0<br/>samples = 2<br/>value = [2, 0, 0]<br/>class = Low quality>, fillcolor="#e58139"] ;
353 -> 354 ;
355 [label=<entropy = 0.0<br/>samples = 1<br/>value = [0, 1, 0]<br/>class = Standard quality>, fillcolor="#39e581"] ;
353 -> 355 ;
356 [label=<entropy = 0.0<br/>samples = 7<br/>value = [0, 7, 0]<br/>class = Standard quality>, fillcolor="#39e581"] ;
350 -> 356 ;
357 [label=<entropy = 0.0<br/>samples = 5<br/>value = [5, 0, 0]<br/>class = Low quality>, fillcolor="#e58139"] ;
345 -> 357 ;
358 [label=<alcohol &le; 11.742<br/>entropy = 1.108<br/>samples = 1243<br/>value = [28, 721, 494]<br/>class = Standard quality>, fillcolor="#c3f7d9"] ;
0 -> 358 [labeldistance=2.5, labelangle=-45, headlabel="False"] ;
359 [label=<free sulfur dioxide &le; 19.5<br/>entropy = 1.064<br/>samples = 691<br/>value = [22.0, 464.0, 205.0]<br/>class = Standard quality>, fillcolor="#95f1bc"] ;
358 -> 359 ;
360 [label=<volatile acidity &le; 0.477<br/>entropy = 1.119<br/>samples = 134<br/>value = [15, 97, 22]<br/>class = Standard quality>, fillcolor="#7aeeab"] ;
359 -> 360 ;
361 [label=<alcohol &le; 11.05<br/>entropy = 1.03<br/>samples = 129<br/>value = [10, 97, 22]<br/>class = Standard quality>, fillcolor="#74eda7"] ;
360 -> 361 ;
362 [label=<fixed acidity &le; 6.85<br/>entropy = 0.446<br/>samples = 43<br/>value = [0, 39, 4]<br/>class = Standard quality>, fillcolor="#4de88e"] ;
361 -> 362 ;
363 [label=<density &le; 0.992<br/>entropy = 0.742<br/>samples = 19<br/>value = [0, 15, 4]<br/>class = Standard quality>, fillcolor="#6eeca3"] ;
362 -> 363 ;
364 [label=<entropy = 0.0<br/>samples = 9<br/>value = [0, 9, 0]<br/>class = Standard quality>, fillcolor="#39e581"] ;
363 -> 364 ;
365 [label=<citric acid &le; 0.29<br/>entropy = 0.971<br/>samples = 10<br/>value = [0, 6, 4]<br/>class = Standard quality>, fillcolor="#bdf6d5"] ;
363 -> 365 ;
366 [label=<entropy = 0.0<br/>samples = 3<br/>value = [0, 3, 0]<br/>class = Standard quality>, fillcolor="#39e581"] ;
365 -> 366 ;
367 [label=<residual sugar &le; 1.65<br/>entropy = 0.985<br/>samples = 7<br/>value = [0, 3, 4]<br/>class = High quality>, fillcolor="#e0cef8"] ;
365 -> 367 ;
368 [label=<density &le; 0.992<br/>entropy = 0.811<br/>samples = 4<br/>value = [0, 3, 1]<br/>class = Standard quality>, fillcolor="#7beeab"] ;
367 -> 368 ;
369 [label=<entropy = 0.0<br/>samples = 1<br/>value = [0, 0, 1]<br/>class = High quality>, fillcolor="#8139e5"] ;
368 -> 369 ;
370 [label=<entropy = 0.0<br/>samples = 3<br/>value = [0, 3, 0]<br/>class = Standard quality>, fillcolor="#39e581"] ;
368 -> 370 ;
371 [label=<entropy = 0.0<br/>samples = 3<br/>value = [0, 0, 3]<br/>class = High quality>, fillcolor="#8139e5"] ;
367 -> 371 ;
372 [label=<entropy = 0.0<br/>samples = 24<br/>value = [0, 24, 0]<br/>class = Standard quality>, fillcolor="#39e581"] ;
362 -> 372 ;
373 [label=<free sulfur dioxide &le; 10.5<br/>entropy = 1.216<br/>samples = 86<br/>value = [10, 58, 18]<br/>class = Standard quality>, fillcolor="#8bf0b5"] ;
361 -> 373 ;
374 [label=<pH &le; 3.045<br/>entropy = 1.188<br/>samples = 20<br/>value = [7, 12, 1]<br/>class = Standard quality>, fillcolor="#b3f5cf"] ;
373 -> 374 ;
375 [label=<entropy = 0.0<br/>samples = 1<br/>value = [0, 0, 1]<br/>class = High quality>, fillcolor="#8139e5"] ;
374 -> 375 ;
376 [label=<alcohol &le; 11.35<br/>entropy = 0.949<br/>samples = 19<br/>value = [7, 12, 0]<br/>class = Standard quality>, fillcolor="#acf4ca"] ;
374 -> 376 ;
377 [label=<total sulfur dioxide &le; 99.0<br/>entropy = 0.863<br/>samples = 7<br/>value = [5, 2, 0]<br/>class = Low quality>, fillcolor="#efb388"] ;
376 -> 377 ;
378 [label=<residual sugar &le; 1.2<br/>entropy = 0.918<br/>samples = 3<br/>value = [1, 2, 0]<br/>class = Standard quality>, fillcolor="#9cf2c0"] ;
377 -> 378 ;
379 [label=<entropy = 0.0<br/>samples = 1<br/>value = [1, 0, 0]<br/>class = Low quality>, fillcolor="#e58139"] ;
378 -> 379 ;
380 [label=<entropy = 0.0<br/>samples = 2<br/>value = [0, 2, 0]<br/>class = Standard quality>, fillcolor="#39e581"] ;
378 -> 380 ;
381 [label=<entropy = 0.0<br/>samples = 4<br/>value = [4, 0, 0]<br/>class = Low quality>, fillcolor="#e58139"] ;
377 -> 381 ;
382 [label=<citric acid &le; 0.33<br/>entropy = 0.65<br/>samples = 12<br/>value = [2, 10, 0]<br/>class = Standard quality>, fillcolor="#61ea9a"] ;
376 -> 382 ;
383 [label=<chlorides &le; 0.044<br/>entropy = 1.0<br/>samples = 4<br/>value = [2, 2, 0]<br/>class = Low quality>, fillcolor="#ffffff"] ;
382 -> 383 ;
384 [label=<entropy = 0.0<br/>samples = 2<br/>value = [2, 0, 0]<br/>class = Low quality>, fillcolor="#e58139"] ;
383 -> 384 ;
385 [label=<entropy = 0.0<br/>samples = 2<br/>value = [0, 2, 0]<br/>class = Standard quality>, fillcolor="#39e581"] ;
383 -> 385 ;
386 [label=<entropy = 0.0<br/>samples = 8<br/>value = [0, 8, 0]<br/>class = Standard quality>, fillcolor="#39e581"] ;
382 -> 386 ;
387 [label=<chlorides &le; 0.036<br/>entropy = 1.07<br/>samples = 66<br/>value = [3, 46, 17]<br/>class = Standard quality>, fillcolor="#8af0b4"] ;
373 -> 387 ;
388 [label=<free sulfur dioxide &le; 13.5<br/>entropy = 1.161<br/>samples = 31<br/>value = [1, 17, 13]<br/>class = Standard quality>, fillcolor="#d3f9e3"] ;
387 -> 388 ;
389 [label=<entropy = 0.0<br/>samples = 6<br/>value = [0, 6, 0]<br/>class = Standard quality>, fillcolor="#39e581"] ;
388 -> 389 ;
390 [label=<density &le; 0.99<br/>entropy = 1.197<br/>samples = 25<br/>value = [1, 11, 13]<br/>class = High quality>, fillcolor="#ede3fb"] ;
388 -> 390 ;
391 [label=<fixed acidity &le; 6.25<br/>entropy = 1.0<br/>samples = 2<br/>value = [1, 1, 0]<br/>class = Low quality>, fillcolor="#ffffff"] ;
390 -> 391 ;
392 [label=<entropy = 0.0<br/>samples = 1<br/>value = [0, 1, 0]<br/>class = Standard quality>, fillcolor="#39e581"] ;
391 -> 392 ;
393 [label=<entropy = 0.0<br/>samples = 1<br/>value = [1, 0, 0]<br/>class = Low quality>, fillcolor="#e58139"] ;
391 -> 393 ;
394 [label=<total sulfur dioxide &le; 103.5<br/>entropy = 0.988<br/>samples = 23<br/>value = [0.0, 10.0, 13.0]<br/>class = High quality>, fillcolor="#e2d1f9"] ;
390 -> 394 ;
395 [label=<alcohol &le; 11.35<br/>entropy = 0.874<br/>samples = 17<br/>value = [0, 5, 12]<br/>class = High quality>, fillcolor="#b58bf0"] ;
394 -> 395 ;
396 [label=<volatile acidity &le; 0.155<br/>entropy = 1.0<br/>samples = 10<br/>value = [0, 5, 5]<br/>class = Standard quality>, fillcolor="#ffffff"] ;
395 -> 396 ;
397 [label=<entropy = 0.0<br/>samples = 3<br/>value = [0, 0, 3]<br/>class = High quality>, fillcolor="#8139e5"] ;
396 -> 397 ;
398 [label=<alcohol &le; 11.15<br/>entropy = 0.863<br/>samples = 7<br/>value = [0, 5, 2]<br/>class = Standard quality>, fillcolor="#88efb3"] ;
396 -> 398 ;
399 [label=<entropy = 0.0<br/>samples = 2<br/>value = [0, 0, 2]<br/>class = High quality>, fillcolor="#8139e5"] ;
398 -> 399 ;
400 [label=<entropy = 0.0<br/>samples = 5<br/>value = [0, 5, 0]<br/>class = Standard quality>, fillcolor="#39e581"] ;
398 -> 400 ;
401 [label=<entropy = 0.0<br/>samples = 7<br/>value = [0, 0, 7]<br/>class = High quality>, fillcolor="#8139e5"] ;
395 -> 401 ;
402 [label=<total sulfur dioxide &le; 125.5<br/>entropy = 0.65<br/>samples = 6<br/>value = [0, 5, 1]<br/>class = Standard quality>, fillcolor="#61ea9a"] ;
394 -> 402 ;
403 [label=<entropy = 0.0<br/>samples = 5<br/>value = [0, 5, 0]<br/>class = Standard quality>, fillcolor="#39e581"] ;
402 -> 403 ;
404 [label=<entropy = 0.0<br/>samples = 1<br/>value = [0, 0, 1]<br/>class = High quality>, fillcolor="#8139e5"] ;
402 -> 404 ;
405 [label=<volatile acidity &le; 0.305<br/>entropy = 0.818<br/>samples = 35<br/>value = [2.0, 29.0, 4.0]<br/>class = Standard quality>, fillcolor="#5fea99"] ;
387 -> 405 ;
406 [label=<free sulfur dioxide &le; 14.5<br/>entropy = 0.469<br/>samples = 30<br/>value = [0, 27, 3]<br/>class = Standard quality>, fillcolor="#4fe88f"] ;
405 -> 406 ;
407 [label=<total sulfur dioxide &le; 124.5<br/>entropy = 0.954<br/>samples = 8<br/>value = [0, 5, 3]<br/>class = Standard quality>, fillcolor="#b0f5cd"] ;
406 -> 407 ;
408 [label=<fixed acidity &le; 5.85<br/>entropy = 0.65<br/>samples = 6<br/>value = [0, 5, 1]<br/>class = Standard quality>, fillcolor="#61ea9a"] ;
407 -> 408 ;
409 [label=<entropy = 0.0<br/>samples = 1<br/>value = [0, 0, 1]<br/>class = High quality>, fillcolor="#8139e5"] ;
408 -> 409 ;
410 [label=<entropy = 0.0<br/>samples = 5<br/>value = [0, 5, 0]<br/>class = Standard quality>, fillcolor="#39e581"] ;
408 -> 410 ;
411 [label=<entropy = 0.0<br/>samples = 2<br/>value = [0, 0, 2]<br/>class = High quality>, fillcolor="#8139e5"] ;
407 -> 411 ;
412 [label=<entropy = 0.0<br/>samples = 22<br/>value = [0, 22, 0]<br/>class = Standard quality>, fillcolor="#39e581"] ;
406 -> 412 ;
413 [label=<fixed acidity &le; 6.5<br/>entropy = 1.522<br/>samples = 5<br/>value = [2, 2, 1]<br/>class = Low quality>, fillcolor="#ffffff"] ;
405 -> 413 ;
414 [label=<entropy = 0.0<br/>samples = 2<br/>value = [0, 2, 0]<br/>class = Standard quality>, fillcolor="#39e581"] ;
413 -> 414 ;
415 [label=<alcohol &le; 11.6<br/>entropy = 0.918<br/>samples = 3<br/>value = [2, 0, 1]<br/>class = Low quality>, fillcolor="#f2c09c"] ;
413 -> 415 ;
416 [label=<entropy = 0.0<br/>samples = 2<br/>value = [2, 0, 0]<br/>class = Low quality>, fillcolor="#e58139"] ;
415 -> 416 ;
417 [label=<entropy = 0.0<br/>samples = 1<br/>value = [0, 0, 1]<br/>class = High quality>, fillcolor="#8139e5"] ;
415 -> 417 ;
418 [label=<entropy = 0.0<br/>samples = 5<br/>value = [5, 0, 0]<br/>class = Low quality>, fillcolor="#e58139"] ;
360 -> 418 ;
419 [label=<free sulfur dioxide &le; 74.5<br/>entropy = 1.004<br/>samples = 557<br/>value = [7, 367, 183]<br/>class = Standard quality>, fillcolor="#9ef2c1"] ;
359 -> 419 ;
420 [label=<chlorides &le; 0.039<br/>entropy = 0.979<br/>samples = 549<br/>value = [5.0, 366.0, 178.0]<br/>class = Standard quality>, fillcolor="#9bf2bf"] ;
419 -> 420 ;
421 [label=<pH &le; 3.245<br/>entropy = 1.0<br/>samples = 283<br/>value = [1, 170, 112]<br/>class = Standard quality>, fillcolor="#bcf6d4"] ;
420 -> 421 ;
422 [label=<volatile acidity &le; 0.265<br/>entropy = 0.923<br/>samples = 173<br/>value = [1, 121, 51]<br/>class = Standard quality>, fillcolor="#8df0b7"] ;
421 -> 422 ;
423 [label=<total sulfur dioxide &le; 153.0<br/>entropy = 0.959<br/>samples = 110<br/>value = [0, 68, 42]<br/>class = Standard quality>, fillcolor="#b3f5cf"] ;
422 -> 423 ;
424 [label=<total sulfur dioxide &le; 84.0<br/>entropy = 0.987<br/>samples = 97<br/>value = [0, 55, 42]<br/>class = Standard quality>, fillcolor="#d0f9e1"] ;
423 -> 424 ;
425 [label=<entropy = 0.0<br/>samples = 10<br/>value = [0, 10, 0]<br/>class = Standard quality>, fillcolor="#39e581"] ;
424 -> 425 ;
426 [label=<volatile acidity &le; 0.155<br/>entropy = 0.999<br/>samples = 87<br/>value = [0, 45, 42]<br/>class = Standard quality>, fillcolor="#f2fdf7"] ;
424 -> 426 ;
427 [label=<entropy = 0.0<br/>samples = 5<br/>value = [0, 0, 5]<br/>class = High quality>, fillcolor="#8139e5"] ;
426 -> 427 ;
428 [label=<pH &le; 3.225<br/>entropy = 0.993<br/>samples = 82<br/>value = [0, 45, 37]<br/>class = Standard quality>, fillcolor="#dcfae9"] ;
426 -> 428 ;
429 [label=<chlorides &le; 0.038<br/>entropy = 0.999<br/>samples = 77<br/>value = [0.0, 40.0, 37.0]<br/>class = Standard quality>, fillcolor="#f0fdf6"] ;
428 -> 429 ;
430 [label=<residual sugar &le; 5.675<br/>entropy = 0.983<br/>samples = 66<br/>value = [0, 38, 28]<br/>class = Standard quality>, fillcolor="#cbf8de"] ;
429 -> 430 ;
431 [label=<residual sugar &le; 1.675<br/>entropy = 1.0<br/>samples = 49<br/>value = [0, 24, 25]<br/>class = High quality>, fillcolor="#faf7fe"] ;
430 -> 431 ;
432 [label=<citric acid &le; 0.355<br/>entropy = 0.863<br/>samples = 21<br/>value = [0, 15, 6]<br/>class = Standard quality>, fillcolor="#88efb3"] ;
431 -> 432 ;
433 [label=<volatile acidity &le; 0.225<br/>entropy = 0.994<br/>samples = 11<br/>value = [0, 5, 6]<br/>class = High quality>, fillcolor="#eadefb"] ;
432 -> 433 ;
434 [label=<alcohol &le; 11.25<br/>entropy = 0.863<br/>samples = 7<br/>value = [0, 5, 2]<br/>class = Standard quality>, fillcolor="#88efb3"] ;
433 -> 434 ;
435 [label=<total sulfur dioxide &le; 88.0<br/>entropy = 0.918<br/>samples = 3<br/>value = [0, 1, 2]<br/>class = High quality>, fillcolor="#c09cf2"] ;
434 -> 435 ;
436 [label=<entropy = 0.0<br/>samples = 1<br/>value = [0, 1, 0]<br/>class = Standard quality>, fillcolor="#39e581"] ;
435 -> 436 ;
437 [label=<entropy = 0.0<br/>samples = 2<br/>value = [0, 0, 2]<br/>class = High quality>, fillcolor="#8139e5"] ;
435 -> 437 ;
438 [label=<entropy = 0.0<br/>samples = 4<br/>value = [0, 4, 0]<br/>class = Standard quality>, fillcolor="#39e581"] ;
434 -> 438 ;
439 [label=<entropy = 0.0<br/>samples = 4<br/>value = [0, 0, 4]<br/>class = High quality>, fillcolor="#8139e5"] ;
433 -> 439 ;
440 [label=<entropy = 0.0<br/>samples = 10<br/>value = [0, 10, 0]<br/>class = Standard quality>, fillcolor="#39e581"] ;
432 -> 440 ;
441 [label=<pH &le; 3.12<br/>entropy = 0.906<br/>samples = 28<br/>value = [0, 9, 19]<br/>class = High quality>, fillcolor="#bd97f1"] ;
431 -> 441 ;
442 [label=<alcohol &le; 11.05<br/>entropy = 1.0<br/>samples = 16<br/>value = [0, 8, 8]<br/>class = Standard quality>, fillcolor="#ffffff"] ;
441 -> 442 ;
443 [label=<entropy = 0.0<br/>samples = 4<br/>value = [0, 4, 0]<br/>class = Standard quality>, fillcolor="#39e581"] ;
442 -> 443 ;
444 [label=<density &le; 0.991<br/>entropy = 0.918<br/>samples = 12<br/>value = [0, 4, 8]<br/>class = High quality>, fillcolor="#c09cf2"] ;
442 -> 444 ;
445 [label=<entropy = 0.0<br/>samples = 2<br/>value = [0, 2, 0]<br/>class = Standard quality>, fillcolor="#39e581"] ;
444 -> 445 ;
446 [label=<density &le; 0.992<br/>entropy = 0.722<br/>samples = 10<br/>value = [0, 2, 8]<br/>class = High quality>, fillcolor="#a06aec"] ;
444 -> 446 ;
447 [label=<entropy = 0.0<br/>samples = 7<br/>value = [0, 0, 7]<br/>class = High quality>, fillcolor="#8139e5"] ;
446 -> 447 ;
448 [label=<chlorides &le; 0.036<br/>entropy = 0.918<br/>samples = 3<br/>value = [0, 2, 1]<br/>class = Standard quality>, fillcolor="#9cf2c0"] ;
446 -> 448 ;
449 [label=<entropy = 0.0<br/>samples = 2<br/>value = [0, 2, 0]<br/>class = Standard quality>, fillcolor="#39e581"] ;
448 -> 449 ;
450 [label=<entropy = 0.0<br/>samples = 1<br/>value = [0, 0, 1]<br/>class = High quality>, fillcolor="#8139e5"] ;
448 -> 450 ;
451 [label=<free sulfur dioxide &le; 58.0<br/>entropy = 0.414<br/>samples = 12<br/>value = [0, 1, 11]<br/>class = High quality>, fillcolor="#8c4be7"] ;
441 -> 451 ;
452 [label=<entropy = 0.0<br/>samples = 11<br/>value = [0, 0, 11]<br/>class = High quality>, fillcolor="#8139e5"] ;
451 -> 452 ;
453 [label=<entropy = 0.0<br/>samples = 1<br/>value = [0, 1, 0]<br/>class = Standard quality>, fillcolor="#39e581"] ;
451 -> 453 ;
454 [label=<free sulfur dioxide &le; 29.5<br/>entropy = 0.672<br/>samples = 17<br/>value = [0, 14, 3]<br/>class = Standard quality>, fillcolor="#63eb9c"] ;
430 -> 454 ;
455 [label=<free sulfur dioxide &le; 24.0<br/>entropy = 0.971<br/>samples = 5<br/>value = [0, 2, 3]<br/>class = High quality>, fillcolor="#d5bdf6"] ;
454 -> 455 ;
456 [label=<entropy = 0.0<br/>samples = 2<br/>value = [0, 2, 0]<br/>class = Standard quality>, fillcolor="#39e581"] ;
455 -> 456 ;
457 [label=<entropy = 0.0<br/>samples = 3<br/>value = [0, 0, 3]<br/>class = High quality>, fillcolor="#8139e5"] ;
455 -> 457 ;
458 [label=<entropy = 0.0<br/>samples = 12<br/>value = [0, 12, 0]<br/>class = Standard quality>, fillcolor="#39e581"] ;
454 -> 458 ;
459 [label=<fixed acidity &le; 6.2<br/>entropy = 0.684<br/>samples = 11<br/>value = [0, 2, 9]<br/>class = High quality>, fillcolor="#9d65eb"] ;
429 -> 459 ;
460 [label=<entropy = 0.0<br/>samples = 2<br/>value = [0, 2, 0]<br/>class = Standard quality>, fillcolor="#39e581"] ;
459 -> 460 ;
461 [label=<entropy = 0.0<br/>samples = 9<br/>value = [0, 0, 9]<br/>class = High quality>, fillcolor="#8139e5"] ;
459 -> 461 ;
462 [label=<entropy = 0.0<br/>samples = 5<br/>value = [0, 5, 0]<br/>class = Standard quality>, fillcolor="#39e581"] ;
428 -> 462 ;
463 [label=<entropy = 0.0<br/>samples = 13<br/>value = [0, 13, 0]<br/>class = Standard quality>, fillcolor="#39e581"] ;
423 -> 463 ;
464 [label=<alcohol &le; 10.85<br/>entropy = 0.706<br/>samples = 63<br/>value = [1, 53, 9]<br/>class = Standard quality>, fillcolor="#5eea98"] ;
422 -> 464 ;
465 [label=<density &le; 0.992<br/>entropy = 0.371<br/>samples = 14<br/>value = [1, 13, 0]<br/>class = Standard quality>, fillcolor="#48e78b"] ;
464 -> 465 ;
466 [label=<entropy = 0.0<br/>samples = 1<br/>value = [1, 0, 0]<br/>class = Low quality>, fillcolor="#e58139"] ;
465 -> 466 ;
467 [label=<entropy = 0.0<br/>samples = 13<br/>value = [0, 13, 0]<br/>class = Standard quality>, fillcolor="#39e581"] ;
465 -> 467 ;
468 [label=<density &le; 0.994<br/>entropy = 0.688<br/>samples = 49<br/>value = [0, 40, 9]<br/>class = Standard quality>, fillcolor="#66eb9d"] ;
464 -> 468 ;
469 [label=<pH &le; 3.125<br/>entropy = 0.461<br/>samples = 41<br/>value = [0, 37, 4]<br/>class = Standard quality>, fillcolor="#4ee88f"] ;
468 -> 469 ;
470 [label=<entropy = 0.0<br/>samples = 22<br/>value = [0, 22, 0]<br/>class = Standard quality>, fillcolor="#39e581"] ;
469 -> 470 ;
471 [label=<free sulfur dioxide &le; 44.0<br/>entropy = 0.742<br/>samples = 19<br/>value = [0, 15, 4]<br/>class = Standard quality>, fillcolor="#6eeca3"] ;
469 -> 471 ;
472 [label=<density &le; 0.991<br/>entropy = 0.523<br/>samples = 17<br/>value = [0, 15, 2]<br/>class = Standard quality>, fillcolor="#53e892"] ;
471 -> 472 ;
473 [label=<fixed acidity &le; 6.8<br/>entropy = 0.811<br/>samples = 8<br/>value = [0, 6, 2]<br/>class = Standard quality>, fillcolor="#7beeab"] ;
472 -> 473 ;
474 [label=<entropy = 0.0<br/>samples = 6<br/>value = [0, 6, 0]<br/>class = Standard quality>, fillcolor="#39e581"] ;
473 -> 474 ;
475 [label=<entropy = 0.0<br/>samples = 2<br/>value = [0, 0, 2]<br/>class = High quality>, fillcolor="#8139e5"] ;
473 -> 475 ;
476 [label=<entropy = 0.0<br/>samples = 9<br/>value = [0, 9, 0]<br/>class = Standard quality>, fillcolor="#39e581"] ;
472 -> 476 ;
477 [label=<entropy = 0.0<br/>samples = 2<br/>value = [0, 0, 2]<br/>class = High quality>, fillcolor="#8139e5"] ;
471 -> 477 ;
478 [label=<density &le; 0.995<br/>entropy = 0.954<br/>samples = 8<br/>value = [0, 3, 5]<br/>class = High quality>, fillcolor="#cdb0f5"] ;
468 -> 478 ;
479 [label=<entropy = 0.0<br/>samples = 4<br/>value = [0, 0, 4]<br/>class = High quality>, fillcolor="#8139e5"] ;
478 -> 479 ;
480 [label=<total sulfur dioxide &le; 131.5<br/>entropy = 0.811<br/>samples = 4<br/>value = [0, 3, 1]<br/>class = Standard quality>, fillcolor="#7beeab"] ;
478 -> 480 ;
481 [label=<entropy = 0.0<br/>samples = 1<br/>value = [0, 0, 1]<br/>class = High quality>, fillcolor="#8139e5"] ;
480 -> 481 ;
482 [label=<entropy = 0.0<br/>samples = 3<br/>value = [0, 3, 0]<br/>class = Standard quality>, fillcolor="#39e581"] ;
480 -> 482 ;
483 [label=<sulphates &le; 0.625<br/>entropy = 0.991<br/>samples = 110<br/>value = [0, 49, 61]<br/>class = High quality>, fillcolor="#e6d8fa"] ;
421 -> 483 ;
484 [label=<density &le; 0.992<br/>entropy = 0.999<br/>samples = 102<br/>value = [0.0, 49.0, 53.0]<br/>class = High quality>, fillcolor="#f5f0fd"] ;
483 -> 484 ;
485 [label=<density &le; 0.99<br/>entropy = 0.903<br/>samples = 47<br/>value = [0, 15, 32]<br/>class = High quality>, fillcolor="#bc96f1"] ;
484 -> 485 ;
486 [label=<entropy = 0.0<br/>samples = 5<br/>value = [0, 5, 0]<br/>class = Standard quality>, fillcolor="#39e581"] ;
485 -> 486 ;
487 [label=<alcohol &le; 11.283<br/>entropy = 0.792<br/>samples = 42<br/>value = [0, 10, 32]<br/>class = High quality>, fillcolor="#a877ed"] ;
485 -> 487 ;
488 [label=<volatile acidity &le; 0.155<br/>entropy = 0.297<br/>samples = 19<br/>value = [0, 1, 18]<br/>class = High quality>, fillcolor="#8844e6"] ;
487 -> 488 ;
489 [label=<free sulfur dioxide &le; 29.0<br/>entropy = 1.0<br/>samples = 2<br/>value = [0, 1, 1]<br/>class = Standard quality>, fillcolor="#ffffff"] ;
488 -> 489 ;
490 [label=<entropy = 0.0<br/>samples = 1<br/>value = [0, 1, 0]<br/>class = Standard quality>, fillcolor="#39e581"] ;
489 -> 490 ;
491 [label=<entropy = 0.0<br/>samples = 1<br/>value = [0, 0, 1]<br/>class = High quality>, fillcolor="#8139e5"] ;
489 -> 491 ;
492 [label=<entropy = 0.0<br/>samples = 17<br/>value = [0, 0, 17]<br/>class = High quality>, fillcolor="#8139e5"] ;
488 -> 492 ;
493 [label=<pH &le; 3.43<br/>entropy = 0.966<br/>samples = 23<br/>value = [0, 9, 14]<br/>class = High quality>, fillcolor="#d2b8f6"] ;
487 -> 493 ;
494 [label=<volatile acidity &le; 0.185<br/>entropy = 0.831<br/>samples = 19<br/>value = [0, 5, 14]<br/>class = High quality>, fillcolor="#ae80ee"] ;
493 -> 494 ;
495 [label=<entropy = 0.0<br/>samples = 6<br/>value = [0, 0, 6]<br/>class = High quality>, fillcolor="#8139e5"] ;
494 -> 495 ;
496 [label=<total sulfur dioxide &le; 92.0<br/>entropy = 0.961<br/>samples = 13<br/>value = [0, 5, 8]<br/>class = High quality>, fillcolor="#d0b5f5"] ;
494 -> 496 ;
497 [label=<entropy = 0.0<br/>samples = 2<br/>value = [0, 2, 0]<br/>class = Standard quality>, fillcolor="#39e581"] ;
496 -> 497 ;
498 [label=<free sulfur dioxide &le; 38.0<br/>entropy = 0.845<br/>samples = 11<br/>value = [0, 3, 8]<br/>class = High quality>, fillcolor="#b083ef"] ;
496 -> 498 ;
499 [label=<entropy = 0.0<br/>samples = 4<br/>value = [0, 0, 4]<br/>class = High quality>, fillcolor="#8139e5"] ;
498 -> 499 ;
500 [label=<fixed acidity &le; 6.15<br/>entropy = 0.985<br/>samples = 7<br/>value = [0, 3, 4]<br/>class = High quality>, fillcolor="#e0cef8"] ;
498 -> 500 ;
501 [label=<volatile acidity &le; 0.355<br/>entropy = 0.722<br/>samples = 5<br/>value = [0, 1, 4]<br/>class = High quality>, fillcolor="#a06aec"] ;
500 -> 501 ;
502 [label=<entropy = 0.0<br/>samples = 4<br/>value = [0, 0, 4]<br/>class = High quality>, fillcolor="#8139e5"] ;
501 -> 502 ;
503 [label=<entropy = 0.0<br/>samples = 1<br/>value = [0, 1, 0]<br/>class = Standard quality>, fillcolor="#39e581"] ;
501 -> 503 ;
504 [label=<entropy = 0.0<br/>samples = 2<br/>value = [0, 2, 0]<br/>class = Standard quality>, fillcolor="#39e581"] ;
500 -> 504 ;
505 [label=<entropy = 0.0<br/>samples = 4<br/>value = [0, 4, 0]<br/>class = Standard quality>, fillcolor="#39e581"] ;
493 -> 505 ;
506 [label=<density &le; 0.992<br/>entropy = 0.959<br/>samples = 55<br/>value = [0, 34, 21]<br/>class = Standard quality>, fillcolor="#b3f5cf"] ;
484 -> 506 ;
507 [label=<entropy = 0.0<br/>samples = 12<br/>value = [0, 12, 0]<br/>class = Standard quality>, fillcolor="#39e581"] ;
506 -> 507 ;
508 [label=<pH &le; 3.365<br/>entropy = 1.0<br/>samples = 43<br/>value = [0, 22, 21]<br/>class = Standard quality>, fillcolor="#f6fef9"] ;
506 -> 508 ;
509 [label=<density &le; 0.992<br/>entropy = 0.811<br/>samples = 20<br/>value = [0, 15, 5]<br/>class = Standard quality>, fillcolor="#7beeab"] ;
508 -> 509 ;
510 [label=<entropy = 0.0<br/>samples = 3<br/>value = [0, 0, 3]<br/>class = High quality>, fillcolor="#8139e5"] ;
509 -> 510 ;
511 [label=<sulphates &le; 0.375<br/>entropy = 0.523<br/>samples = 17<br/>value = [0, 15, 2]<br/>class = Standard quality>, fillcolor="#53e892"] ;
509 -> 511 ;
512 [label=<total sulfur dioxide &le; 117.5<br/>entropy = 1.0<br/>samples = 4<br/>value = [0, 2, 2]<br/>class = Standard quality>, fillcolor="#ffffff"] ;
511 -> 512 ;
513 [label=<entropy = 0.0<br/>samples = 2<br/>value = [0, 2, 0]<br/>class = Standard quality>, fillcolor="#39e581"] ;
512 -> 513 ;
514 [label=<entropy = 0.0<br/>samples = 2<br/>value = [0, 0, 2]<br/>class = High quality>, fillcolor="#8139e5"] ;
512 -> 514 ;
515 [label=<entropy = 0.0<br/>samples = 13<br/>value = [0, 13, 0]<br/>class = Standard quality>, fillcolor="#39e581"] ;
511 -> 515 ;
516 [label=<fixed acidity &le; 6.75<br/>entropy = 0.887<br/>samples = 23<br/>value = [0, 7, 16]<br/>class = High quality>, fillcolor="#b890f0"] ;
508 -> 516 ;
517 [label=<pH &le; 3.395<br/>entropy = 0.989<br/>samples = 16<br/>value = [0, 7, 9]<br/>class = High quality>, fillcolor="#e3d3f9"] ;
516 -> 517 ;
518 [label=<entropy = 0.0<br/>samples = 3<br/>value = [0, 3, 0]<br/>class = Standard quality>, fillcolor="#39e581"] ;
517 -> 518 ;
519 [label=<pH &le; 3.605<br/>entropy = 0.89<br/>samples = 13<br/>value = [0, 4, 9]<br/>class = High quality>, fillcolor="#b991f1"] ;
517 -> 519 ;
520 [label=<residual sugar &le; 1.65<br/>entropy = 0.684<br/>samples = 11<br/>value = [0, 2, 9]<br/>class = High quality>, fillcolor="#9d65eb"] ;
519 -> 520 ;
521 [label=<entropy = 0.0<br/>samples = 2<br/>value = [0, 2, 0]<br/>class = Standard quality>, fillcolor="#39e581"] ;
520 -> 521 ;
522 [label=<entropy = 0.0<br/>samples = 9<br/>value = [0, 0, 9]<br/>class = High quality>, fillcolor="#8139e5"] ;
520 -> 522 ;
523 [label=<entropy = 0.0<br/>samples = 2<br/>value = [0, 2, 0]<br/>class = Standard quality>, fillcolor="#39e581"] ;
519 -> 523 ;
524 [label=<entropy = 0.0<br/>samples = 7<br/>value = [0, 0, 7]<br/>class = High quality>, fillcolor="#8139e5"] ;
516 -> 524 ;
525 [label=<entropy = 0.0<br/>samples = 8<br/>value = [0, 0, 8]<br/>class = High quality>, fillcolor="#8139e5"] ;
483 -> 525 ;
526 [label=<citric acid &le; 0.225<br/>entropy = 0.915<br/>samples = 266<br/>value = [4, 196, 66]<br/>class = Standard quality>, fillcolor="#7eeead"] ;
420 -> 526 ;
527 [label=<sulphates &le; 0.32<br/>entropy = 0.544<br/>samples = 16<br/>value = [2, 14, 0]<br/>class = Standard quality>, fillcolor="#55e993"] ;
526 -> 527 ;
528 [label=<entropy = 0.0<br/>samples = 2<br/>value = [2, 0, 0]<br/>class = Low quality>, fillcolor="#e58139"] ;
527 -> 528 ;
529 [label=<entropy = 0.0<br/>samples = 14<br/>value = [0, 14, 0]<br/>class = Standard quality>, fillcolor="#39e581"] ;
527 -> 529 ;
530 [label=<residual sugar &le; 1.05<br/>entropy = 0.896<br/>samples = 250<br/>value = [2, 182, 66]<br/>class = Standard quality>, fillcolor="#82efb0"] ;
526 -> 530 ;
531 [label=<density &le; 0.992<br/>entropy = 0.65<br/>samples = 12<br/>value = [2, 10, 0]<br/>class = Standard quality>, fillcolor="#61ea9a"] ;
530 -> 531 ;
532 [label=<entropy = 0.0<br/>samples = 10<br/>value = [0, 10, 0]<br/>class = Standard quality>, fillcolor="#39e581"] ;
531 -> 532 ;
533 [label=<entropy = 0.0<br/>samples = 2<br/>value = [2, 0, 0]<br/>class = Low quality>, fillcolor="#e58139"] ;
531 -> 533 ;
534 [label=<volatile acidity &le; 0.127<br/>entropy = 0.852<br/>samples = 238<br/>value = [0, 172, 66]<br/>class = Standard quality>, fillcolor="#85efb1"] ;
530 -> 534 ;
535 [label=<entropy = 0.0<br/>samples = 4<br/>value = [0, 0, 4]<br/>class = High quality>, fillcolor="#8139e5"] ;
534 -> 535 ;
536 [label=<alcohol &le; 11.475<br/>entropy = 0.834<br/>samples = 234<br/>value = [0, 172, 62]<br/>class = Standard quality>, fillcolor="#80eeae"] ;
534 -> 536 ;
537 [label=<fixed acidity &le; 6.95<br/>entropy = 0.79<br/>samples = 215<br/>value = [0, 164, 51]<br/>class = Standard quality>, fillcolor="#77eda8"] ;
536 -> 537 ;
538 [label=<free sulfur dioxide &le; 29.5<br/>entropy = 0.888<br/>samples = 121<br/>value = [0, 84, 37]<br/>class = Standard quality>, fillcolor="#90f0b8"] ;
537 -> 538 ;
539 [label=<free sulfur dioxide &le; 23.0<br/>entropy = 0.422<br/>samples = 35<br/>value = [0, 32, 3]<br/>class = Standard quality>, fillcolor="#4ce78d"] ;
538 -> 539 ;
540 [label=<pH &le; 3.215<br/>entropy = 0.811<br/>samples = 12<br/>value = [0, 9, 3]<br/>class = Standard quality>, fillcolor="#7beeab"] ;
539 -> 540 ;
541 [label=<entropy = 0.0<br/>samples = 8<br/>value = [0, 8, 0]<br/>class = Standard quality>, fillcolor="#39e581"] ;
540 -> 541 ;
542 [label=<sulphates &le; 0.58<br/>entropy = 0.811<br/>samples = 4<br/>value = [0, 1, 3]<br/>class = High quality>, fillcolor="#ab7bee"] ;
540 -> 542 ;
543 [label=<entropy = 0.0<br/>samples = 3<br/>value = [0, 0, 3]<br/>class = High quality>, fillcolor="#8139e5"] ;
542 -> 543 ;
544 [label=<entropy = 0.0<br/>samples = 1<br/>value = [0, 1, 0]<br/>class = Standard quality>, fillcolor="#39e581"] ;
542 -> 544 ;
545 [label=<entropy = 0.0<br/>samples = 23<br/>value = [0, 23, 0]<br/>class = Standard quality>, fillcolor="#39e581"] ;
539 -> 545 ;
546 [label=<pH &le; 3.145<br/>entropy = 0.968<br/>samples = 86<br/>value = [0, 52, 34]<br/>class = Standard quality>, fillcolor="#baf6d3"] ;
538 -> 546 ;
547 [label=<chlorides &le; 0.043<br/>entropy = 0.902<br/>samples = 22<br/>value = [0.0, 7.0, 15.0]<br/>class = High quality>, fillcolor="#bc95f1"] ;
546 -> 547 ;
548 [label=<entropy = 0.0<br/>samples = 3<br/>value = [0, 3, 0]<br/>class = Standard quality>, fillcolor="#39e581"] ;
547 -> 548 ;
549 [label=<volatile acidity &le; 0.15<br/>entropy = 0.742<br/>samples = 19<br/>value = [0, 4, 15]<br/>class = High quality>, fillcolor="#a36eec"] ;
547 -> 549 ;
550 [label=<density &le; 0.991<br/>entropy = 0.811<br/>samples = 4<br/>value = [0, 3, 1]<br/>class = Standard quality>, fillcolor="#7beeab"] ;
549 -> 550 ;
551 [label=<entropy = 0.0<br/>samples = 1<br/>value = [0, 0, 1]<br/>class = High quality>, fillcolor="#8139e5"] ;
550 -> 551 ;
552 [label=<entropy = 0.0<br/>samples = 3<br/>value = [0, 3, 0]<br/>class = Standard quality>, fillcolor="#39e581"] ;
550 -> 552 ;
553 [label=<pH &le; 3.115<br/>entropy = 0.353<br/>samples = 15<br/>value = [0, 1, 14]<br/>class = High quality>, fillcolor="#8a47e7"] ;
549 -> 553 ;
554 [label=<entropy = 0.0<br/>samples = 13<br/>value = [0, 0, 13]<br/>class = High quality>, fillcolor="#8139e5"] ;
553 -> 554 ;
555 [label=<alcohol &le; 11.2<br/>entropy = 1.0<br/>samples = 2<br/>value = [0, 1, 1]<br/>class = Standard quality>, fillcolor="#ffffff"] ;
553 -> 555 ;
556 [label=<entropy = 0.0<br/>samples = 1<br/>value = [0, 1, 0]<br/>class = Standard quality>, fillcolor="#39e581"] ;
555 -> 556 ;
557 [label=<entropy = 0.0<br/>samples = 1<br/>value = [0, 0, 1]<br/>class = High quality>, fillcolor="#8139e5"] ;
555 -> 557 ;
558 [label=<total sulfur dioxide &le; 115.5<br/>entropy = 0.877<br/>samples = 64<br/>value = [0, 45, 19]<br/>class = Standard quality>, fillcolor="#8df0b6"] ;
546 -> 558 ;
559 [label=<sulphates &le; 0.455<br/>entropy = 0.845<br/>samples = 11<br/>value = [0, 3, 8]<br/>class = High quality>, fillcolor="#b083ef"] ;
558 -> 559 ;
560 [label=<alcohol &le; 11.25<br/>entropy = 0.811<br/>samples = 4<br/>value = [0, 3, 1]<br/>class = Standard quality>, fillcolor="#7beeab"] ;
559 -> 560 ;
561 [label=<entropy = 0.0<br/>samples = 3<br/>value = [0, 3, 0]<br/>class = Standard quality>, fillcolor="#39e581"] ;
560 -> 561 ;
562 [label=<entropy = 0.0<br/>samples = 1<br/>value = [0, 0, 1]<br/>class = High quality>, fillcolor="#8139e5"] ;
560 -> 562 ;
563 [label=<entropy = 0.0<br/>samples = 7<br/>value = [0, 0, 7]<br/>class = High quality>, fillcolor="#8139e5"] ;
559 -> 563 ;
564 [label=<pH &le; 3.265<br/>entropy = 0.737<br/>samples = 53<br/>value = [0, 42, 11]<br/>class = Standard quality>, fillcolor="#6deca2"] ;
558 -> 564 ;
565 [label=<entropy = 0.0<br/>samples = 22<br/>value = [0, 22, 0]<br/>class = Standard quality>, fillcolor="#39e581"] ;
564 -> 565 ;
566 [label=<alcohol &le; 10.75<br/>entropy = 0.938<br/>samples = 31<br/>value = [0, 20, 11]<br/>class = Standard quality>, fillcolor="#a6f3c6"] ;
564 -> 566 ;
567 [label=<entropy = 0.0<br/>samples = 3<br/>value = [0, 0, 3]<br/>class = High quality>, fillcolor="#8139e5"] ;
566 -> 567 ;
568 [label=<residual sugar &le; 1.15<br/>entropy = 0.863<br/>samples = 28<br/>value = [0, 20, 8]<br/>class = Standard quality>, fillcolor="#88efb3"] ;
566 -> 568 ;
569 [label=<entropy = 0.0<br/>samples = 2<br/>value = [0, 0, 2]<br/>class = High quality>, fillcolor="#8139e5"] ;
568 -> 569 ;
570 [label=<citric acid &le; 0.275<br/>entropy = 0.779<br/>samples = 26<br/>value = [0, 20, 6]<br/>class = Standard quality>, fillcolor="#74eda7"] ;
568 -> 570 ;
571 [label=<entropy = 0.0<br/>samples = 6<br/>value = [0, 6, 0]<br/>class = Standard quality>, fillcolor="#39e581"] ;
570 -> 571 ;
572 [label=<total sulfur dioxide &le; 126.5<br/>entropy = 0.881<br/>samples = 20<br/>value = [0, 14, 6]<br/>class = Standard quality>, fillcolor="#8ef0b7"] ;
570 -> 572 ;
573 [label=<entropy = 0.0<br/>samples = 4<br/>value = [0, 4, 0]<br/>class = Standard quality>, fillcolor="#39e581"] ;
572 -> 573 ;
574 [label=<sulphates &le; 0.605<br/>entropy = 0.954<br/>samples = 16<br/>value = [0, 10, 6]<br/>class = Standard quality>, fillcolor="#b0f5cd"] ;
572 -> 574 ;
575 [label=<free sulfur dioxide &le; 48.5<br/>entropy = 0.811<br/>samples = 12<br/>value = [0, 9, 3]<br/>class = Standard quality>, fillcolor="#7beeab"] ;
574 -> 575 ;
576 [label=<chlorides &le; 0.048<br/>entropy = 0.985<br/>samples = 7<br/>value = [0, 4, 3]<br/>class = Standard quality>, fillcolor="#cef8e0"] ;
575 -> 576 ;
577 [label=<total sulfur dioxide &le; 181.5<br/>entropy = 0.811<br/>samples = 4<br/>value = [0, 1, 3]<br/>class = High quality>, fillcolor="#ab7bee"] ;
576 -> 577 ;
578 [label=<entropy = 0.0<br/>samples = 3<br/>value = [0, 0, 3]<br/>class = High quality>, fillcolor="#8139e5"] ;
577 -> 578 ;
579 [label=<entropy = 0.0<br/>samples = 1<br/>value = [0, 1, 0]<br/>class = Standard quality>, fillcolor="#39e581"] ;
577 -> 579 ;
580 [label=<entropy = 0.0<br/>samples = 3<br/>value = [0, 3, 0]<br/>class = Standard quality>, fillcolor="#39e581"] ;
576 -> 580 ;
581 [label=<entropy = 0.0<br/>samples = 5<br/>value = [0, 5, 0]<br/>class = Standard quality>, fillcolor="#39e581"] ;
575 -> 581 ;
582 [label=<density &le; 0.991<br/>entropy = 0.811<br/>samples = 4<br/>value = [0, 1, 3]<br/>class = High quality>, fillcolor="#ab7bee"] ;
574 -> 582 ;
583 [label=<entropy = 0.0<br/>samples = 1<br/>value = [0, 1, 0]<br/>class = Standard quality>, fillcolor="#39e581"] ;
582 -> 583 ;
584 [label=<entropy = 0.0<br/>samples = 3<br/>value = [0, 0, 3]<br/>class = High quality>, fillcolor="#8139e5"] ;
582 -> 584 ;
585 [label=<volatile acidity &le; 0.365<br/>entropy = 0.607<br/>samples = 94<br/>value = [0, 80, 14]<br/>class = Standard quality>, fillcolor="#5cea97"] ;
537 -> 585 ;
586 [label=<pH &le; 3.435<br/>entropy = 0.491<br/>samples = 84<br/>value = [0, 75, 9]<br/>class = Standard quality>, fillcolor="#51e890"] ;
585 -> 586 ;
587 [label=<volatile acidity &le; 0.225<br/>entropy = 0.384<br/>samples = 80<br/>value = [0, 74, 6]<br/>class = Standard quality>, fillcolor="#49e78b"] ;
586 -> 587 ;
588 [label=<total sulfur dioxide &le; 100.5<br/>entropy = 0.684<br/>samples = 33<br/>value = [0, 27, 6]<br/>class = Standard quality>, fillcolor="#65eb9d"] ;
587 -> 588 ;
589 [label=<sulphates &le; 0.475<br/>entropy = 1.0<br/>samples = 6<br/>value = [0, 3, 3]<br/>class = Standard quality>, fillcolor="#ffffff"] ;
588 -> 589 ;
590 [label=<alcohol &le; 10.85<br/>entropy = 0.811<br/>samples = 4<br/>value = [0, 3, 1]<br/>class = Standard quality>, fillcolor="#7beeab"] ;
589 -> 590 ;
591 [label=<entropy = 0.0<br/>samples = 1<br/>value = [0, 0, 1]<br/>class = High quality>, fillcolor="#8139e5"] ;
590 -> 591 ;
592 [label=<entropy = 0.0<br/>samples = 3<br/>value = [0, 3, 0]<br/>class = Standard quality>, fillcolor="#39e581"] ;
590 -> 592 ;
593 [label=<entropy = 0.0<br/>samples = 2<br/>value = [0, 0, 2]<br/>class = High quality>, fillcolor="#8139e5"] ;
589 -> 593 ;
594 [label=<density &le; 0.992<br/>entropy = 0.503<br/>samples = 27<br/>value = [0, 24, 3]<br/>class = Standard quality>, fillcolor="#52e891"] ;
588 -> 594 ;
595 [label=<entropy = 0.0<br/>samples = 14<br/>value = [0, 14, 0]<br/>class = Standard quality>, fillcolor="#39e581"] ;
594 -> 595 ;
596 [label=<residual sugar &le; 5.9<br/>entropy = 0.779<br/>samples = 13<br/>value = [0, 10, 3]<br/>class = Standard quality>, fillcolor="#74eda7"] ;
594 -> 596 ;
597 [label=<pH &le; 3.26<br/>entropy = 0.985<br/>samples = 7<br/>value = [0, 4, 3]<br/>class = Standard quality>, fillcolor="#cef8e0"] ;
596 -> 597 ;
598 [label=<density &le; 0.994<br/>entropy = 0.811<br/>samples = 4<br/>value = [0, 1, 3]<br/>class = High quality>, fillcolor="#ab7bee"] ;
597 -> 598 ;
599 [label=<entropy = 0.0<br/>samples = 3<br/>value = [0, 0, 3]<br/>class = High quality>, fillcolor="#8139e5"] ;
598 -> 599 ;
600 [label=<entropy = 0.0<br/>samples = 1<br/>value = [0, 1, 0]<br/>class = Standard quality>, fillcolor="#39e581"] ;
598 -> 600 ;
601 [label=<entropy = 0.0<br/>samples = 3<br/>value = [0, 3, 0]<br/>class = Standard quality>, fillcolor="#39e581"] ;
597 -> 601 ;
602 [label=<entropy = 0.0<br/>samples = 6<br/>value = [0, 6, 0]<br/>class = Standard quality>, fillcolor="#39e581"] ;
596 -> 602 ;
603 [label=<entropy = 0.0<br/>samples = 47<br/>value = [0, 47, 0]<br/>class = Standard quality>, fillcolor="#39e581"] ;
587 -> 603 ;
604 [label=<chlorides &le; 0.056<br/>entropy = 0.811<br/>samples = 4<br/>value = [0, 1, 3]<br/>class = High quality>, fillcolor="#ab7bee"] ;
586 -> 604 ;
605 [label=<entropy = 0.0<br/>samples = 3<br/>value = [0, 0, 3]<br/>class = High quality>, fillcolor="#8139e5"] ;
604 -> 605 ;
606 [label=<entropy = 0.0<br/>samples = 1<br/>value = [0, 1, 0]<br/>class = Standard quality>, fillcolor="#39e581"] ;
604 -> 606 ;
607 [label=<free sulfur dioxide &le; 32.5<br/>entropy = 1.0<br/>samples = 10<br/>value = [0, 5, 5]<br/>class = Standard quality>, fillcolor="#ffffff"] ;
585 -> 607 ;
608 [label=<entropy = 0.0<br/>samples = 5<br/>value = [0, 0, 5]<br/>class = High quality>, fillcolor="#8139e5"] ;
607 -> 608 ;
609 [label=<entropy = 0.0<br/>samples = 5<br/>value = [0, 5, 0]<br/>class = Standard quality>, fillcolor="#39e581"] ;
607 -> 609 ;
610 [label=<total sulfur dioxide &le; 155.5<br/>entropy = 0.982<br/>samples = 19<br/>value = [0, 8, 11]<br/>class = High quality>, fillcolor="#ddc9f8"] ;
536 -> 610 ;
611 [label=<volatile acidity &le; 0.265<br/>entropy = 0.837<br/>samples = 15<br/>value = [0, 4, 11]<br/>class = High quality>, fillcolor="#af81ee"] ;
610 -> 611 ;
612 [label=<entropy = 0.0<br/>samples = 8<br/>value = [0, 0, 8]<br/>class = High quality>, fillcolor="#8139e5"] ;
611 -> 612 ;
613 [label=<pH &le; 3.095<br/>entropy = 0.985<br/>samples = 7<br/>value = [0, 4, 3]<br/>class = Standard quality>, fillcolor="#cef8e0"] ;
611 -> 613 ;
614 [label=<entropy = 0.0<br/>samples = 3<br/>value = [0, 0, 3]<br/>class = High quality>, fillcolor="#8139e5"] ;
613 -> 614 ;
615 [label=<entropy = 0.0<br/>samples = 4<br/>value = [0, 4, 0]<br/>class = Standard quality>, fillcolor="#39e581"] ;
613 -> 615 ;
616 [label=<entropy = 0.0<br/>samples = 4<br/>value = [0, 4, 0]<br/>class = Standard quality>, fillcolor="#39e581"] ;
610 -> 616 ;
617 [label=<sulphates &le; 0.485<br/>entropy = 1.299<br/>samples = 8<br/>value = [2, 1, 5]<br/>class = High quality>, fillcolor="#c09cf2"] ;
419 -> 617 ;
618 [label=<entropy = 0.0<br/>samples = 2<br/>value = [2, 0, 0]<br/>class = Low quality>, fillcolor="#e58139"] ;
617 -> 618 ;
619 [label=<volatile acidity &le; 0.245<br/>entropy = 0.65<br/>samples = 6<br/>value = [0, 1, 5]<br/>class = High quality>, fillcolor="#9a61ea"] ;
617 -> 619 ;
620 [label=<entropy = 0.0<br/>samples = 5<br/>value = [0, 0, 5]<br/>class = High quality>, fillcolor="#8139e5"] ;
619 -> 620 ;
621 [label=<entropy = 0.0<br/>samples = 1<br/>value = [0, 1, 0]<br/>class = Standard quality>, fillcolor="#39e581"] ;
619 -> 621 ;
622 [label=<free sulfur dioxide &le; 21.5<br/>entropy = 1.073<br/>samples = 552<br/>value = [6, 257, 289]<br/>class = High quality>, fillcolor="#f1eafc"] ;
358 -> 622 ;
623 [label=<alcohol &le; 12.65<br/>entropy = 1.147<br/>samples = 137<br/>value = [6, 86, 45]<br/>class = Standard quality>, fillcolor="#a7f3c7"] ;
622 -> 623 ;
624 [label=<free sulfur dioxide &le; 8.5<br/>entropy = 1.081<br/>samples = 86<br/>value = [6.0, 62.0, 18.0]<br/>class = Standard quality>, fillcolor="#7feead"] ;
623 -> 624 ;
625 [label=<citric acid &le; 0.365<br/>entropy = 1.3<br/>samples = 18<br/>value = [5, 11, 2]<br/>class = Standard quality>, fillcolor="#a4f3c5"] ;
624 -> 625 ;
626 [label=<citric acid &le; 0.26<br/>entropy = 0.619<br/>samples = 13<br/>value = [2, 11, 0]<br/>class = Standard quality>, fillcolor="#5dea98"] ;
625 -> 626 ;
627 [label=<entropy = 0.0<br/>samples = 2<br/>value = [2, 0, 0]<br/>class = Low quality>, fillcolor="#e58139"] ;
626 -> 627 ;
628 [label=<entropy = 0.0<br/>samples = 11<br/>value = [0, 11, 0]<br/>class = Standard quality>, fillcolor="#39e581"] ;
626 -> 628 ;
629 [label=<residual sugar &le; 5.55<br/>entropy = 0.971<br/>samples = 5<br/>value = [3, 0, 2]<br/>class = Low quality>, fillcolor="#f6d5bd"] ;
625 -> 629 ;
630 [label=<entropy = 0.0<br/>samples = 3<br/>value = [3, 0, 0]<br/>class = Low quality>, fillcolor="#e58139"] ;
629 -> 630 ;
631 [label=<entropy = 0.0<br/>samples = 2<br/>value = [0, 0, 2]<br/>class = High quality>, fillcolor="#8139e5"] ;
629 -> 631 ;
632 [label=<residual sugar &le; 1.175<br/>entropy = 0.892<br/>samples = 68<br/>value = [1, 51, 16]<br/>class = Standard quality>, fillcolor="#7aeeaa"] ;
624 -> 632 ;
633 [label=<volatile acidity &le; 0.238<br/>entropy = 1.0<br/>samples = 2<br/>value = [1, 0, 1]<br/>class = Low quality>, fillcolor="#ffffff"] ;
632 -> 633 ;
634 [label=<entropy = 0.0<br/>samples = 1<br/>value = [0, 0, 1]<br/>class = High quality>, fillcolor="#8139e5"] ;
633 -> 634 ;
635 [label=<entropy = 0.0<br/>samples = 1<br/>value = [1, 0, 0]<br/>class = Low quality>, fillcolor="#e58139"] ;
633 -> 635 ;
636 [label=<volatile acidity &le; 0.325<br/>entropy = 0.773<br/>samples = 66<br/>value = [0, 51, 15]<br/>class = Standard quality>, fillcolor="#73eda6"] ;
632 -> 636 ;
637 [label=<sulphates &le; 0.795<br/>entropy = 0.519<br/>samples = 43<br/>value = [0, 38, 5]<br/>class = Standard quality>, fillcolor="#53e892"] ;
636 -> 637 ;
638 [label=<volatile acidity &le; 0.215<br/>entropy = 0.378<br/>samples = 41<br/>value = [0, 38, 3]<br/>class = Standard quality>, fillcolor="#49e78b"] ;
637 -> 638 ;
639 [label=<volatile acidity &le; 0.205<br/>entropy = 0.881<br/>samples = 10<br/>value = [0, 7, 3]<br/>class = Standard quality>, fillcolor="#8ef0b7"] ;
638 -> 639 ;
640 [label=<entropy = 0.0<br/>samples = 6<br/>value = [0, 6, 0]<br/>class = Standard quality>, fillcolor="#39e581"] ;
639 -> 640 ;
641 [label=<chlorides &le; 0.028<br/>entropy = 0.811<br/>samples = 4<br/>value = [0, 1, 3]<br/>class = High quality>, fillcolor="#ab7bee"] ;
639 -> 641 ;
642 [label=<entropy = 0.0<br/>samples = 1<br/>value = [0, 1, 0]<br/>class = Standard quality>, fillcolor="#39e581"] ;
641 -> 642 ;
643 [label=<entropy = 0.0<br/>samples = 3<br/>value = [0, 0, 3]<br/>class = High quality>, fillcolor="#8139e5"] ;
641 -> 643 ;
644 [label=<entropy = 0.0<br/>samples = 31<br/>value = [0, 31, 0]<br/>class = Standard quality>, fillcolor="#39e581"] ;
638 -> 644 ;
645 [label=<entropy = 0.0<br/>samples = 2<br/>value = [0, 0, 2]<br/>class = High quality>, fillcolor="#8139e5"] ;
637 -> 645 ;
646 [label=<volatile acidity &le; 0.468<br/>entropy = 0.988<br/>samples = 23<br/>value = [0.0, 13.0, 10.0]<br/>class = Standard quality>, fillcolor="#d1f9e2"] ;
636 -> 646 ;
647 [label=<citric acid &le; 0.395<br/>entropy = 0.991<br/>samples = 18<br/>value = [0, 8, 10]<br/>class = High quality>, fillcolor="#e6d7fa"] ;
646 -> 647 ;
648 [label=<pH &le; 3.36<br/>entropy = 0.918<br/>samples = 15<br/>value = [0, 5, 10]<br/>class = High quality>, fillcolor="#c09cf2"] ;
647 -> 648 ;
649 [label=<pH &le; 3.17<br/>entropy = 1.0<br/>samples = 10<br/>value = [0, 5, 5]<br/>class = Standard quality>, fillcolor="#ffffff"] ;
648 -> 649 ;
650 [label=<pH &le; 2.96<br/>entropy = 0.863<br/>samples = 7<br/>value = [0, 2, 5]<br/>class = High quality>, fillcolor="#b388ef"] ;
649 -> 650 ;
651 [label=<entropy = 0.0<br/>samples = 2<br/>value = [0, 2, 0]<br/>class = Standard quality>, fillcolor="#39e581"] ;
650 -> 651 ;
652 [label=<entropy = 0.0<br/>samples = 5<br/>value = [0, 0, 5]<br/>class = High quality>, fillcolor="#8139e5"] ;
650 -> 652 ;
653 [label=<entropy = 0.0<br/>samples = 3<br/>value = [0, 3, 0]<br/>class = Standard quality>, fillcolor="#39e581"] ;
649 -> 653 ;
654 [label=<entropy = 0.0<br/>samples = 5<br/>value = [0, 0, 5]<br/>class = High quality>, fillcolor="#8139e5"] ;
648 -> 654 ;
655 [label=<entropy = 0.0<br/>samples = 3<br/>value = [0, 3, 0]<br/>class = Standard quality>, fillcolor="#39e581"] ;
647 -> 655 ;
656 [label=<entropy = 0.0<br/>samples = 5<br/>value = [0, 5, 0]<br/>class = Standard quality>, fillcolor="#39e581"] ;
646 -> 656 ;
657 [label=<fixed acidity &le; 6.35<br/>entropy = 0.998<br/>samples = 51<br/>value = [0, 24, 27]<br/>class = High quality>, fillcolor="#f1e9fc"] ;
623 -> 657 ;
658 [label=<citric acid &le; 0.325<br/>entropy = 0.811<br/>samples = 28<br/>value = [0, 7, 21]<br/>class = High quality>, fillcolor="#ab7bee"] ;
657 -> 658 ;
659 [label=<total sulfur dioxide &le; 125.5<br/>entropy = 0.297<br/>samples = 19<br/>value = [0, 1, 18]<br/>class = High quality>, fillcolor="#8844e6"] ;
658 -> 659 ;
660 [label=<entropy = 0.0<br/>samples = 18<br/>value = [0, 0, 18]<br/>class = High quality>, fillcolor="#8139e5"] ;
659 -> 660 ;
661 [label=<entropy = 0.0<br/>samples = 1<br/>value = [0, 1, 0]<br/>class = Standard quality>, fillcolor="#39e581"] ;
659 -> 661 ;
662 [label=<free sulfur dioxide &le; 16.5<br/>entropy = 0.918<br/>samples = 9<br/>value = [0, 6, 3]<br/>class = Standard quality>, fillcolor="#9cf2c0"] ;
658 -> 662 ;
663 [label=<entropy = 0.0<br/>samples = 4<br/>value = [0, 4, 0]<br/>class = Standard quality>, fillcolor="#39e581"] ;
662 -> 663 ;
664 [label=<citric acid &le; 0.385<br/>entropy = 0.971<br/>samples = 5<br/>value = [0, 2, 3]<br/>class = High quality>, fillcolor="#d5bdf6"] ;
662 -> 664 ;
665 [label=<entropy = 0.0<br/>samples = 3<br/>value = [0, 0, 3]<br/>class = High quality>, fillcolor="#8139e5"] ;
664 -> 665 ;
666 [label=<entropy = 0.0<br/>samples = 2<br/>value = [0, 2, 0]<br/>class = Standard quality>, fillcolor="#39e581"] ;
664 -> 666 ;
667 [label=<citric acid &le; 0.245<br/>entropy = 0.828<br/>samples = 23<br/>value = [0, 17, 6]<br/>class = Standard quality>, fillcolor="#7feead"] ;
657 -> 667 ;
668 [label=<entropy = 0.0<br/>samples = 3<br/>value = [0, 0, 3]<br/>class = High quality>, fillcolor="#8139e5"] ;
667 -> 668 ;
669 [label=<sulphates &le; 0.385<br/>entropy = 0.61<br/>samples = 20<br/>value = [0, 17, 3]<br/>class = Standard quality>, fillcolor="#5cea97"] ;
667 -> 669 ;
670 [label=<free sulfur dioxide &le; 16.0<br/>entropy = 0.811<br/>samples = 4<br/>value = [0, 1, 3]<br/>class = High quality>, fillcolor="#ab7bee"] ;
669 -> 670 ;
671 [label=<entropy = 0.0<br/>samples = 3<br/>value = [0, 0, 3]<br/>class = High quality>, fillcolor="#8139e5"] ;
670 -> 671 ;
672 [label=<entropy = 0.0<br/>samples = 1<br/>value = [0, 1, 0]<br/>class = Standard quality>, fillcolor="#39e581"] ;
670 -> 672 ;
673 [label=<entropy = 0.0<br/>samples = 16<br/>value = [0, 16, 0]<br/>class = Standard quality>, fillcolor="#39e581"] ;
669 -> 673 ;
674 [label=<residual sugar &le; 1.75<br/>entropy = 0.978<br/>samples = 415<br/>value = [0.0, 171.0, 244.0]<br/>class = High quality>, fillcolor="#d9c4f7"] ;
622 -> 674 ;
675 [label=<citric acid &le; 0.375<br/>entropy = 0.984<br/>samples = 113<br/>value = [0, 65, 48]<br/>class = Standard quality>, fillcolor="#cbf8de"] ;
674 -> 675 ;
676 [label=<free sulfur dioxide &le; 39.5<br/>entropy = 1.0<br/>samples = 86<br/>value = [0, 43, 43]<br/>class = Standard quality>, fillcolor="#ffffff"] ;
675 -> 676 ;
677 [label=<pH &le; 3.04<br/>entropy = 0.976<br/>samples = 61<br/>value = [0, 36, 25]<br/>class = Standard quality>, fillcolor="#c2f7d8"] ;
676 -> 677 ;
678 [label=<entropy = 0.0<br/>samples = 6<br/>value = [0, 6, 0]<br/>class = Standard quality>, fillcolor="#39e581"] ;
677 -> 678 ;
679 [label=<total sulfur dioxide &le; 82.5<br/>entropy = 0.994<br/>samples = 55<br/>value = [0.0, 30.0, 25.0]<br/>class = Standard quality>, fillcolor="#defbea"] ;
677 -> 679 ;
680 [label=<entropy = 0.0<br/>samples = 4<br/>value = [0, 4, 0]<br/>class = Standard quality>, fillcolor="#39e581"] ;
679 -> 680 ;
681 [label=<total sulfur dioxide &le; 90.0<br/>entropy = 1.0<br/>samples = 51<br/>value = [0, 26, 25]<br/>class = Standard quality>, fillcolor="#f7fefa"] ;
679 -> 681 ;
682 [label=<entropy = 0.0<br/>samples = 6<br/>value = [0, 0, 6]<br/>class = High quality>, fillcolor="#8139e5"] ;
681 -> 682 ;
683 [label=<chlorides &le; 0.041<br/>entropy = 0.982<br/>samples = 45<br/>value = [0.0, 26.0, 19.0]<br/>class = Standard quality>, fillcolor="#caf8dd"] ;
681 -> 683 ;
684 [label=<density &le; 0.99<br/>entropy = 0.998<br/>samples = 40<br/>value = [0, 21, 19]<br/>class = Standard quality>, fillcolor="#ecfdf3"] ;
683 -> 684 ;
685 [label=<fixed acidity &le; 6.85<br/>entropy = 0.989<br/>samples = 32<br/>value = [0, 14, 18]<br/>class = High quality>, fillcolor="#e3d3f9"] ;
684 -> 685 ;
686 [label=<total sulfur dioxide &le; 95.5<br/>entropy = 1.0<br/>samples = 28<br/>value = [0, 14, 14]<br/>class = Standard quality>, fillcolor="#ffffff"] ;
685 -> 686 ;
687 [label=<entropy = 0.0<br/>samples = 4<br/>value = [0, 0, 4]<br/>class = High quality>, fillcolor="#8139e5"] ;
686 -> 687 ;
